digraph Tree {
node [shape=box] ;
0 [label="NumberOfTimes90DaysLate <= 0.5\ngini = 0.1244\nsamples = 112500\nvalue = [105006, 7494]"] ;
1 [label="RevolvingUtilizationOfUnsecuredLines <= 0.5484\ngini = 0.0881\nsamples = 106255\nvalue = [101347, 4908]"] ;
0 -> 1 [labeldistance=2.5, labelangle=45, headlabel="True"] ;
2 [label="NumberOfTime60to89DaysPastDueNotWorse <= 0.5\ngini = 0.0468\nsamples = 82230\nvalue = [80258, 1972]"] ;
1 -> 2 ;
3 [label="NumberOfTime30to59DaysPastDueNotWorse <= 0.5\ngini = 0.0412\nsamples = 80520\nvalue = [78826, 1694]"] ;
2 -> 3 ;
4 [label="RevolvingUtilizationOfUnsecuredLines <= 0.2332\ngini = 0.0311\nsamples = 72565\nvalue = [71420, 1145]"] ;
3 -> 4 ;
5 [label="NumberRealEstateLoansOrLines <= 4.5\ngini = 0.0226\nsamples = 57098\nvalue = [56445, 653]"] ;
4 -> 5 ;
6 [label="age <= 43.5\ngini = 0.0216\nsamples = 56617\nvalue = [56000, 617]"] ;
5 -> 6 ;
7 [label="NumberOfOpenCreditLinesAndLoans <= 48.5\ngini = 0.0346\nsamples = 12477\nvalue = [12257, 220]"] ;
6 -> 7 ;
8 [label="NumberOfOpenCreditLinesAndLoans <= 8.5\ngini = 0.0343\nsamples = 12475\nvalue = [12257, 218]"] ;
7 -> 8 ;
9 [label="NumberRealEstateLoansOrLines <= 3.5\ngini = 0.0256\nsamples = 8473\nvalue = [8363, 110]"] ;
8 -> 9 ;
10 [label="MonthlyIncome <= 5011.5\ngini = 0.0252\nsamples = 8452\nvalue = [8344, 108]"] ;
9 -> 10 ;
11 [label="MonthlyIncome <= 5009.0\ngini = 0.0321\nsamples = 4164\nvalue = [4096, 68]"] ;
10 -> 11 ;
12 [label="RevolvingUtilizationOfUnsecuredLines <= 0.2275\ngini = 0.0317\nsamples = 4162\nvalue = [4095, 67]"] ;
11 -> 12 ;
13 [label="NumberOfDependents <= 0.5\ngini = 0.0305\nsamples = 4129\nvalue = [4065, 64]"] ;
12 -> 13 ;
14 [label="NumberOfOpenCreditLinesAndLoans <= 6.5\ngini = 0.0233\nsamples = 2794\nvalue = [2761, 33]"] ;
13 -> 14 ;
15 [label="MonthlyIncome <= 1094.0\ngini = 0.0191\nsamples = 2175\nvalue = [2154, 21]"] ;
14 -> 15 ;
16 [label="age <= 32.5\ngini = 0.0041\nsamples = 482\nvalue = [481, 1]"] ;
15 -> 16 ;
17 [label="gini = 0.0\nsamples = 427\nvalue = [427, 0]"] ;
16 -> 17 ;
18 [label="age <= 33.5\ngini = 0.0357\nsamples = 55\nvalue = [54, 1]"] ;
16 -> 18 ;
19 [label="DebtRatio <= 0.0423\ngini = 0.1975\nsamples = 9\nvalue = [8, 1]"] ;
18 -> 19 ;
20 [label="gini = 0.0\nsamples = 1\nvalue = [0, 1]"] ;
19 -> 20 ;
21 [label="gini = 0.0\nsamples = 8\nvalue = [8, 0]"] ;
19 -> 21 ;
22 [label="gini = 0.0\nsamples = 46\nvalue = [46, 0]"] ;
18 -> 22 ;
23 [label="MonthlyIncome <= 1408.0\ngini = 0.0233\nsamples = 1693\nvalue = [1673, 20]"] ;
15 -> 23 ;
24 [label="age <= 28.5\ngini = 0.1372\nsamples = 81\nvalue = [75, 6]"] ;
23 -> 24 ;
25 [label="NumberOfOpenCreditLinesAndLoans <= 5.5\ngini = 0.2449\nsamples = 42\nvalue = [36, 6]"] ;
24 -> 25 ;
26 [label="DebtRatio <= 0.1701\ngini = 0.2188\nsamples = 40\nvalue = [35, 5]"] ;
25 -> 26 ;
27 [label="DebtRatio <= 0.1291\ngini = 0.3299\nsamples = 24\nvalue = [19, 5]"] ;
26 -> 27 ;
28 [label="NumberOfOpenCreditLinesAndLoans <= 2.5\ngini = 0.2873\nsamples = 23\nvalue = [19, 4]"] ;
27 -> 28 ;
29 [label="age <= 22.0\ngini = 0.1327\nsamples = 14\nvalue = [13, 1]"] ;
28 -> 29 ;
30 [label="MonthlyIncome <= 1285.0\ngini = 0.5\nsamples = 2\nvalue = [1, 1]"] ;
29 -> 30 ;
31 [label="gini = 0.0\nsamples = 1\nvalue = [1, 0]"] ;
30 -> 31 ;
32 [label="gini = 0.0\nsamples = 1\nvalue = [0, 1]"] ;
30 -> 32 ;
33 [label="gini = 0.0\nsamples = 12\nvalue = [12, 0]"] ;
29 -> 33 ;
34 [label="age <= 25.5\ngini = 0.4444\nsamples = 9\nvalue = [6, 3]"] ;
28 -> 34 ;
35 [label="gini = 0.0\nsamples = 5\nvalue = [5, 0]"] ;
34 -> 35 ;
36 [label="DebtRatio <= 0.003\ngini = 0.375\nsamples = 4\nvalue = [1, 3]"] ;
34 -> 36 ;
37 [label="gini = 0.0\nsamples = 1\nvalue = [1, 0]"] ;
36 -> 37 ;
38 [label="gini = 0.0\nsamples = 3\nvalue = [0, 3]"] ;
36 -> 38 ;
39 [label="gini = 0.0\nsamples = 1\nvalue = [0, 1]"] ;
27 -> 39 ;
40 [label="gini = 0.0\nsamples = 16\nvalue = [16, 0]"] ;
26 -> 40 ;
41 [label="age <= 27.0\ngini = 0.5\nsamples = 2\nvalue = [1, 1]"] ;
25 -> 41 ;
42 [label="gini = 0.0\nsamples = 1\nvalue = [1, 0]"] ;
41 -> 42 ;
43 [label="gini = 0.0\nsamples = 1\nvalue = [0, 1]"] ;
41 -> 43 ;
44 [label="gini = 0.0\nsamples = 39\nvalue = [39, 0]"] ;
24 -> 44 ;
45 [label="RevolvingUtilizationOfUnsecuredLines <= 0.0\ngini = 0.0172\nsamples = 1612\nvalue = [1598, 14]"] ;
23 -> 45 ;
46 [label="MonthlyIncome <= 2452.0\ngini = 0.0365\nsamples = 376\nvalue = [369, 7]"] ;
45 -> 46 ;
47 [label="MonthlyIncome <= 2443.5\ngini = 0.0655\nsamples = 118\nvalue = [114, 4]"] ;
46 -> 47 ;
48 [label="age <= 30.5\ngini = 0.05\nsamples = 117\nvalue = [114, 3]"] ;
47 -> 48 ;
49 [label="DebtRatio <= 0.1995\ngini = 0.0758\nsamples = 76\nvalue = [73, 3]"] ;
48 -> 49 ;
50 [label="DebtRatio <= 0.1926\ngini = 0.1087\nsamples = 52\nvalue = [49, 3]"] ;
49 -> 50 ;
51 [label="NumberOfOpenCreditLinesAndLoans <= 4.5\ngini = 0.0754\nsamples = 51\nvalue = [49, 2]"] ;
50 -> 51 ;
52 [label="MonthlyIncome <= 2275.0\ngini = 0.0454\nsamples = 43\nvalue = [42, 1]"] ;
51 -> 52 ;
53 [label="gini = 0.0\nsamples = 34\nvalue = [34, 0]"] ;
52 -> 53 ;
54 [label="MonthlyIncome <= 2350.0\ngini = 0.1975\nsamples = 9\nvalue = [8, 1]"] ;
52 -> 54 ;
55 [label="age <= 26.5\ngini = 0.5\nsamples = 2\nvalue = [1, 1]"] ;
54 -> 55 ;
56 [label="gini = 0.0\nsamples = 1\nvalue = [1, 0]"] ;
55 -> 56 ;
57 [label="gini = 0.0\nsamples = 1\nvalue = [0, 1]"] ;
55 -> 57 ;
58 [label="gini = 0.0\nsamples = 7\nvalue = [7, 0]"] ;
54 -> 58 ;
59 [label="DebtRatio <= 0.1052\ngini = 0.2188\nsamples = 8\nvalue = [7, 1]"] ;
51 -> 59 ;
60 [label="gini = 0.0\nsamples = 6\nvalue = [6, 0]"] ;
59 -> 60 ;
61 [label="age <= 26.5\ngini = 0.5\nsamples = 2\nvalue = [1, 1]"] ;
59 -> 61 ;
62 [label="gini = 0.0\nsamples = 1\nvalue = [0, 1]"] ;
61 -> 62 ;
63 [label="gini = 0.0\nsamples = 1\nvalue = [1, 0]"] ;
61 -> 63 ;
64 [label="gini = 0.0\nsamples = 1\nvalue = [0, 1]"] ;
50 -> 64 ;
65 [label="gini = 0.0\nsamples = 24\nvalue = [24, 0]"] ;
49 -> 65 ;
66 [label="gini = 0.0\nsamples = 41\nvalue = [41, 0]"] ;
48 -> 66 ;
67 [label="gini = 0.0\nsamples = 1\nvalue = [0, 1]"] ;
47 -> 67 ;
68 [label="age <= 41.5\ngini = 0.023\nsamples = 258\nvalue = [255, 3]"] ;
46 -> 68 ;
69 [label="DebtRatio <= 0.6489\ngini = 0.0167\nsamples = 237\nvalue = [235, 2]"] ;
68 -> 69 ;
70 [label="MonthlyIncome <= 2804.0\ngini = 0.0091\nsamples = 219\nvalue = [218, 1]"] ;
69 -> 70 ;
71 [label="MonthlyIncome <= 2784.5\ngini = 0.0408\nsamples = 48\nvalue = [47, 1]"] ;
70 -> 71 ;
72 [label="gini = 0.0\nsamples = 43\nvalue = [43, 0]"] ;
71 -> 72 ;
73 [label="DebtRatio <= 0.098\ngini = 0.32\nsamples = 5\nvalue = [4, 1]"] ;
71 -> 73 ;
74 [label="NumberOfOpenCreditLinesAndLoans <= 3.0\ngini = 0.5\nsamples = 2\nvalue = [1, 1]"] ;
73 -> 74 ;
75 [label="gini = 0.0\nsamples = 1\nvalue = [1, 0]"] ;
74 -> 75 ;
76 [label="gini = 0.0\nsamples = 1\nvalue = [0, 1]"] ;
74 -> 76 ;
77 [label="gini = 0.0\nsamples = 3\nvalue = [3, 0]"] ;
73 -> 77 ;
78 [label="gini = 0.0\nsamples = 171\nvalue = [171, 0]"] ;
70 -> 78 ;
79 [label="DebtRatio <= 0.6617\ngini = 0.1049\nsamples = 18\nvalue = [17, 1]"] ;
69 -> 79 ;
80 [label="gini = 0.0\nsamples = 1\nvalue = [0, 1]"] ;
79 -> 80 ;
81 [label="gini = 0.0\nsamples = 17\nvalue = [17, 0]"] ;
79 -> 81 ;
82 [label="MonthlyIncome <= 4897.5\ngini = 0.0907\nsamples = 21\nvalue = [20, 1]"] ;
68 -> 82 ;
83 [label="gini = 0.0\nsamples = 18\nvalue = [18, 0]"] ;
82 -> 83 ;
84 [label="MonthlyIncome <= 4981.0\ngini = 0.4444\nsamples = 3\nvalue = [2, 1]"] ;
82 -> 84 ;
85 [label="gini = 0.0\nsamples = 1\nvalue = [0, 1]"] ;
84 -> 85 ;
86 [label="gini = 0.0\nsamples = 2\nvalue = [2, 0]"] ;
84 -> 86 ;
87 [label="NumberRealEstateLoansOrLines <= 1.5\ngini = 0.0113\nsamples = 1236\nvalue = [1229, 7]"] ;
45 -> 87 ;
88 [label="DebtRatio <= 0.0499\ngini = 0.0087\nsamples = 1143\nvalue = [1138, 5]"] ;
87 -> 88 ;
89 [label="gini = 0.0\nsamples = 398\nvalue = [398, 0]"] ;
88 -> 89 ;
90 [label="DebtRatio <= 0.0503\ngini = 0.0133\nsamples = 745\nvalue = [740, 5]"] ;
88 -> 90 ;
91 [label="gini = 0.0\nsamples = 1\nvalue = [0, 1]"] ;
90 -> 91 ;
92 [label="DebtRatio <= 0.0619\ngini = 0.0107\nsamples = 744\nvalue = [740, 4]"] ;
90 -> 92 ;
93 [label="DebtRatio <= 0.0613\ngini = 0.0713\nsamples = 27\nvalue = [26, 1]"] ;
92 -> 93 ;
94 [label="gini = 0.0\nsamples = 26\nvalue = [26, 0]"] ;
93 -> 94 ;
95 [label="gini = 0.0\nsamples = 1\nvalue = [0, 1]"] ;
93 -> 95 ;
96 [label="age <= 41.5\ngini = 0.0083\nsamples = 717\nvalue = [714, 3]"] ;
92 -> 96 ;
97 [label="MonthlyIncome <= 2002.5\ngini = 0.0059\nsamples = 671\nvalue = [669, 2]"] ;
96 -> 97 ;
98 [label="MonthlyIncome <= 1995.0\ngini = 0.0202\nsamples = 98\nvalue = [97, 1]"] ;
97 -> 98 ;
99 [label="gini = 0.0\nsamples = 79\nvalue = [79, 0]"] ;
98 -> 99 ;
100 [label="RevolvingUtilizationOfUnsecuredLines <= 0.0418\ngini = 0.0997\nsamples = 19\nvalue = [18, 1]"] ;
98 -> 100 ;
101 [label="RevolvingUtilizationOfUnsecuredLines <= 0.0313\ngini = 0.32\nsamples = 5\nvalue = [4, 1]"] ;
100 -> 101 ;
102 [label="gini = 0.0\nsamples = 4\nvalue = [4, 0]"] ;
101 -> 102 ;
103 [label="gini = 0.0\nsamples = 1\nvalue = [0, 1]"] ;
101 -> 103 ;
104 [label="gini = 0.0\nsamples = 14\nvalue = [14, 0]"] ;
100 -> 104 ;
105 [label="RevolvingUtilizationOfUnsecuredLines <= 0.1259\ngini = 0.0035\nsamples = 573\nvalue = [572, 1]"] ;
97 -> 105 ;
106 [label="gini = 0.0\nsamples = 376\nvalue = [376, 0]"] ;
105 -> 106 ;
107 [label="RevolvingUtilizationOfUnsecuredLines <= 0.1262\ngini = 0.0101\nsamples = 197\nvalue = [196, 1]"] ;
105 -> 107 ;
108 [label="gini = 0.0\nsamples = 1\nvalue = [0, 1]"] ;
107 -> 108 ;
109 [label="gini = 0.0\nsamples = 196\nvalue = [196, 0]"] ;
107 -> 109 ;
110 [label="NumberOfOpenCreditLinesAndLoans <= 5.5\ngini = 0.0425\nsamples = 46\nvalue = [45, 1]"] ;
96 -> 110 ;
111 [label="gini = 0.0\nsamples = 34\nvalue = [34, 0]"] ;
110 -> 111 ;
112 [label="MonthlyIncome <= 3060.0\ngini = 0.1528\nsamples = 12\nvalue = [11, 1]"] ;
110 -> 112 ;
113 [label="age <= 42.5\ngini = 0.4444\nsamples = 3\nvalue = [2, 1]"] ;
112 -> 113 ;
114 [label="gini = 0.0\nsamples = 1\nvalue = [0, 1]"] ;
113 -> 114 ;
115 [label="gini = 0.0\nsamples = 2\nvalue = [2, 0]"] ;
113 -> 115 ;
116 [label="gini = 0.0\nsamples = 9\nvalue = [9, 0]"] ;
112 -> 116 ;
117 [label="RevolvingUtilizationOfUnsecuredLines <= 0.1958\ngini = 0.0421\nsamples = 93\nvalue = [91, 2]"] ;
87 -> 117 ;
118 [label="age <= 38.5\ngini = 0.0225\nsamples = 88\nvalue = [87, 1]"] ;
117 -> 118 ;
119 [label="gini = 0.0\nsamples = 59\nvalue = [59, 0]"] ;
118 -> 119 ;
120 [label="MonthlyIncome <= 4226.0\ngini = 0.0666\nsamples = 29\nvalue = [28, 1]"] ;
118 -> 120 ;
121 [label="gini = 0.0\nsamples = 19\nvalue = [19, 0]"] ;
120 -> 121 ;
122 [label="MonthlyIncome <= 4413.0\ngini = 0.18\nsamples = 10\nvalue = [9, 1]"] ;
120 -> 122 ;
123 [label="gini = 0.0\nsamples = 1\nvalue = [0, 1]"] ;
122 -> 123 ;
124 [label="gini = 0.0\nsamples = 9\nvalue = [9, 0]"] ;
122 -> 124 ;
125 [label="RevolvingUtilizationOfUnsecuredLines <= 0.2\ngini = 0.32\nsamples = 5\nvalue = [4, 1]"] ;
117 -> 125 ;
126 [label="gini = 0.0\nsamples = 1\nvalue = [0, 1]"] ;
125 -> 126 ;
127 [label="gini = 0.0\nsamples = 4\nvalue = [4, 0]"] ;
125 -> 127 ;
128 [label="age <= 24.5\ngini = 0.038\nsamples = 619\nvalue = [607, 12]"] ;
14 -> 128 ;
129 [label="RevolvingUtilizationOfUnsecuredLines <= 0.0014\ngini = 0.1975\nsamples = 18\nvalue = [16, 2]"] ;
128 -> 129 ;
130 [label="gini = 0.0\nsamples = 1\nvalue = [0, 1]"] ;
129 -> 130 ;
131 [label="MonthlyIncome <= 850.0\ngini = 0.1107\nsamples = 17\nvalue = [16, 1]"] ;
129 -> 131 ;
132 [label="RevolvingUtilizationOfUnsecuredLines <= 0.1197\ngini = 0.5\nsamples = 2\nvalue = [1, 1]"] ;
131 -> 132 ;
133 [label="gini = 0.0\nsamples = 1\nvalue = [0, 1]"] ;
132 -> 133 ;
134 [label="gini = 0.0\nsamples = 1\nvalue = [1, 0]"] ;
132 -> 134 ;
135 [label="gini = 0.0\nsamples = 15\nvalue = [15, 0]"] ;
131 -> 135 ;
136 [label="NumberRealEstateLoansOrLines <= 2.5\ngini = 0.0327\nsamples = 601\nvalue = [591, 10]"] ;
128 -> 136 ;
137 [label="RevolvingUtilizationOfUnsecuredLines <= 0.0976\ngini = 0.03\nsamples = 590\nvalue = [581, 9]"] ;
136 -> 137 ;
138 [label="age <= 28.5\ngini = 0.0152\nsamples = 393\nvalue = [390, 3]"] ;
137 -> 138 ;
139 [label="age <= 27.5\ngini = 0.0634\nsamples = 61\nvalue = [59, 2]"] ;
138 -> 139 ;
140 [label="gini = 0.0\nsamples = 34\nvalue = [34, 0]"] ;
139 -> 140 ;
141 [label="DebtRatio <= 0.08\ngini = 0.1372\nsamples = 27\nvalue = [25, 2]"] ;
139 -> 141 ;
142 [label="gini = 0.0\nsamples = 1\nvalue = [0, 1]"] ;
141 -> 142 ;
143 [label="MonthlyIncome <= 1648.5\ngini = 0.074\nsamples = 26\nvalue = [25, 1]"] ;
141 -> 143 ;
144 [label="MonthlyIncome <= 1608.0\ngini = 0.2778\nsamples = 6\nvalue = [5, 1]"] ;
143 -> 144 ;
145 [label="gini = 0.0\nsamples = 5\nvalue = [5, 0]"] ;
144 -> 145 ;
146 [label="gini = 0.0\nsamples = 1\nvalue = [0, 1]"] ;
144 -> 146 ;
147 [label="gini = 0.0\nsamples = 20\nvalue = [20, 0]"] ;
143 -> 147 ;
148 [label="DebtRatio <= 0.6948\ngini = 0.006\nsamples = 332\nvalue = [331, 1]"] ;
138 -> 148 ;
149 [label="gini = 0.0\nsamples = 272\nvalue = [272, 0]"] ;
148 -> 149 ;
150 [label="DebtRatio <= 0.7035\ngini = 0.0328\nsamples = 60\nvalue = [59, 1]"] ;
148 -> 150 ;
151 [label="gini = 0.0\nsamples = 1\nvalue = [0, 1]"] ;
150 -> 151 ;
152 [label="gini = 0.0\nsamples = 59\nvalue = [59, 0]"] ;
150 -> 152 ;
153 [label="RevolvingUtilizationOfUnsecuredLines <= 0.0982\ngini = 0.0591\nsamples = 197\nvalue = [191, 6]"] ;
137 -> 153 ;
154 [label="gini = 0.0\nsamples = 1\nvalue = [0, 1]"] ;
153 -> 154 ;
155 [label="MonthlyIncome <= 4610.5\ngini = 0.0497\nsamples = 196\nvalue = [191, 5]"] ;
153 -> 155 ;
156 [label="RevolvingUtilizationOfUnsecuredLines <= 0.1013\ngini = 0.0331\nsamples = 178\nvalue = [175, 3]"] ;
155 -> 156 ;
157 [label="RevolvingUtilizationOfUnsecuredLines <= 0.101\ngini = 0.1975\nsamples = 9\nvalue = [8, 1]"] ;
156 -> 157 ;
158 [label="gini = 0.0\nsamples = 8\nvalue = [8, 0]"] ;
157 -> 158 ;
159 [label="gini = 0.0\nsamples = 1\nvalue = [0, 1]"] ;
157 -> 159 ;
160 [label="DebtRatio <= 0.2443\ngini = 0.0234\nsamples = 169\nvalue = [167, 2]"] ;
156 -> 160 ;
161 [label="DebtRatio <= 0.2419\ngini = 0.0634\nsamples = 61\nvalue = [59, 2]"] ;
160 -> 161 ;
162 [label="RevolvingUtilizationOfUnsecuredLines <= 0.1836\ngini = 0.0328\nsamples = 60\nvalue = [59, 1]"] ;
161 -> 162 ;
163 [label="gini = 0.0\nsamples = 46\nvalue = [46, 0]"] ;
162 -> 163 ;
164 [label="RevolvingUtilizationOfUnsecuredLines <= 0.1845\ngini = 0.1327\nsamples = 14\nvalue = [13, 1]"] ;
162 -> 164 ;
165 [label="gini = 0.0\nsamples = 1\nvalue = [0, 1]"] ;
164 -> 165 ;
166 [label="gini = 0.0\nsamples = 13\nvalue = [13, 0]"] ;
164 -> 166 ;
167 [label="gini = 0.0\nsamples = 1\nvalue = [0, 1]"] ;
161 -> 167 ;
168 [label="gini = 0.0\nsamples = 108\nvalue = [108, 0]"] ;
160 -> 168 ;
169 [label="MonthlyIncome <= 4728.0\ngini = 0.1975\nsamples = 18\nvalue = [16, 2]"] ;
155 -> 169 ;
170 [label="DebtRatio <= 0.2509\ngini = 0.4444\nsamples = 3\nvalue = [1, 2]"] ;
169 -> 170 ;
171 [label="gini = 0.0\nsamples = 1\nvalue = [1, 0]"] ;
170 -> 171 ;
172 [label="gini = 0.0\nsamples = 2\nvalue = [0, 2]"] ;
170 -> 172 ;
173 [label="gini = 0.0\nsamples = 15\nvalue = [15, 0]"] ;
169 -> 173 ;
174 [label="DebtRatio <= 1.3447\ngini = 0.1653\nsamples = 11\nvalue = [10, 1]"] ;
136 -> 174 ;
175 [label="gini = 0.0\nsamples = 9\nvalue = [9, 0]"] ;
174 -> 175 ;
176 [label="MonthlyIncome <= 1832.0\ngini = 0.5\nsamples = 2\nvalue = [1, 1]"] ;
174 -> 176 ;
177 [label="gini = 0.0\nsamples = 1\nvalue = [1, 0]"] ;
176 -> 177 ;
178 [label="gini = 0.0\nsamples = 1\nvalue = [0, 1]"] ;
176 -> 178 ;
179 [label="age <= 40.5\ngini = 0.0454\nsamples = 1335\nvalue = [1304, 31]"] ;
13 -> 179 ;
180 [label="MonthlyIncome <= 4697.0\ngini = 0.0374\nsamples = 997\nvalue = [978, 19]"] ;
179 -> 180 ;
181 [label="NumberRealEstateLoansOrLines <= 0.5\ngini = 0.0313\nsamples = 881\nvalue = [867, 14]"] ;
180 -> 181 ;
182 [label="DebtRatio <= 0.3351\ngini = 0.0492\nsamples = 436\nvalue = [425, 11]"] ;
181 -> 182 ;
183 [label="RevolvingUtilizationOfUnsecuredLines <= 0.0\ngini = 0.0313\nsamples = 377\nvalue = [371, 6]"] ;
182 -> 183 ;
184 [label="age <= 26.5\ngini = 0.1107\nsamples = 85\nvalue = [80, 5]"] ;
183 -> 184 ;
185 [label="NumberOfOpenCreditLinesAndLoans <= 3.5\ngini = 0.2604\nsamples = 13\nvalue = [11, 2]"] ;
184 -> 185 ;
186 [label="gini = 0.0\nsamples = 9\nvalue = [9, 0]"] ;
185 -> 186 ;
187 [label="DebtRatio <= 0.0979\ngini = 0.5\nsamples = 4\nvalue = [2, 2]"] ;
185 -> 187 ;
188 [label="gini = 0.0\nsamples = 1\nvalue = [1, 0]"] ;
187 -> 188 ;
189 [label="MonthlyIncome <= 1100.0\ngini = 0.4444\nsamples = 3\nvalue = [1, 2]"] ;
187 -> 189 ;
190 [label="gini = 0.0\nsamples = 1\nvalue = [1, 0]"] ;
189 -> 190 ;
191 [label="gini = 0.0\nsamples = 2\nvalue = [0, 2]"] ;
189 -> 191 ;
192 [label="MonthlyIncome <= 3301.0\ngini = 0.0799\nsamples = 72\nvalue = [69, 3]"] ;
184 -> 192 ;
193 [label="gini = 0.0\nsamples = 48\nvalue = [48, 0]"] ;
192 -> 193 ;
194 [label="MonthlyIncome <= 3376.0\ngini = 0.2188\nsamples = 24\nvalue = [21, 3]"] ;
192 -> 194 ;
195 [label="gini = 0.0\nsamples = 1\nvalue = [0, 1]"] ;
194 -> 195 ;
196 [label="DebtRatio <= 0.1119\ngini = 0.1588\nsamples = 23\nvalue = [21, 2]"] ;
194 -> 196 ;
197 [label="gini = 0.0\nsamples = 14\nvalue = [14, 0]"] ;
196 -> 197 ;
198 [label="NumberOfOpenCreditLinesAndLoans <= 3.0\ngini = 0.3457\nsamples = 9\nvalue = [7, 2]"] ;
196 -> 198 ;
199 [label="gini = 0.0\nsamples = 1\nvalue = [0, 1]"] ;
198 -> 199 ;
200 [label="DebtRatio <= 0.1551\ngini = 0.2188\nsamples = 8\nvalue = [7, 1]"] ;
198 -> 200 ;
201 [label="gini = 0.0\nsamples = 5\nvalue = [5, 0]"] ;
200 -> 201 ;
202 [label="MonthlyIncome <= 4032.0\ngini = 0.4444\nsamples = 3\nvalue = [2, 1]"] ;
200 -> 202 ;
203 [label="gini = 0.0\nsamples = 2\nvalue = [2, 0]"] ;
202 -> 203 ;
204 [label="gini = 0.0\nsamples = 1\nvalue = [0, 1]"] ;
202 -> 204 ;
205 [label="NumberOfDependents <= 3.5\ngini = 0.0068\nsamples = 292\nvalue = [291, 1]"] ;
183 -> 205 ;
206 [label="gini = 0.0\nsamples = 280\nvalue = [280, 0]"] ;
205 -> 206 ;
207 [label="MonthlyIncome <= 2425.0\ngini = 0.1528\nsamples = 12\nvalue = [11, 1]"] ;
205 -> 207 ;
208 [label="gini = 0.0\nsamples = 1\nvalue = [0, 1]"] ;
207 -> 208 ;
209 [label="gini = 0.0\nsamples = 11\nvalue = [11, 0]"] ;
207 -> 209 ;
210 [label="DebtRatio <= 0.337\ngini = 0.1551\nsamples = 59\nvalue = [54, 5]"] ;
182 -> 210 ;
211 [label="gini = 0.0\nsamples = 1\nvalue = [0, 1]"] ;
210 -> 211 ;
212 [label="RevolvingUtilizationOfUnsecuredLines <= 0.0738\ngini = 0.1284\nsamples = 58\nvalue = [54, 4]"] ;
210 -> 212 ;
213 [label="age <= 30.5\ngini = 0.054\nsamples = 36\nvalue = [35, 1]"] ;
212 -> 213 ;
214 [label="age <= 29.5\ngini = 0.1653\nsamples = 11\nvalue = [10, 1]"] ;
213 -> 214 ;
215 [label="gini = 0.0\nsamples = 9\nvalue = [9, 0]"] ;
214 -> 215 ;
216 [label="NumberOfOpenCreditLinesAndLoans <= 4.5\ngini = 0.5\nsamples = 2\nvalue = [1, 1]"] ;
214 -> 216 ;
217 [label="gini = 0.0\nsamples = 1\nvalue = [0, 1]"] ;
216 -> 217 ;
218 [label="gini = 0.0\nsamples = 1\nvalue = [1, 0]"] ;
216 -> 218 ;
219 [label="gini = 0.0\nsamples = 25\nvalue = [25, 0]"] ;
213 -> 219 ;
220 [label="age <= 39.5\ngini = 0.2355\nsamples = 22\nvalue = [19, 3]"] ;
212 -> 220 ;
221 [label="RevolvingUtilizationOfUnsecuredLines <= 0.0804\ngini = 0.1723\nsamples = 21\nvalue = [19, 2]"] ;
220 -> 221 ;
222 [label="gini = 0.0\nsamples = 1\nvalue = [0, 1]"] ;
221 -> 222 ;
223 [label="age <= 38.5\ngini = 0.095\nsamples = 20\nvalue = [19, 1]"] ;
221 -> 223 ;
224 [label="gini = 0.0\nsamples = 17\nvalue = [17, 0]"] ;
223 -> 224 ;
225 [label="RevolvingUtilizationOfUnsecuredLines <= 0.1953\ngini = 0.4444\nsamples = 3\nvalue = [2, 1]"] ;
223 -> 225 ;
226 [label="gini = 0.0\nsamples = 2\nvalue = [2, 0]"] ;
225 -> 226 ;
227 [label="gini = 0.0\nsamples = 1\nvalue = [0, 1]"] ;
225 -> 227 ;
228 [label="gini = 0.0\nsamples = 1\nvalue = [0, 1]"] ;
220 -> 228 ;
229 [label="age <= 27.5\ngini = 0.0134\nsamples = 445\nvalue = [442, 3]"] ;
181 -> 229 ;
230 [label="NumberRealEstateLoansOrLines <= 1.5\ngini = 0.2449\nsamples = 7\nvalue = [6, 1]"] ;
229 -> 230 ;
231 [label="gini = 0.0\nsamples = 6\nvalue = [6, 0]"] ;
230 -> 231 ;
232 [label="gini = 0.0\nsamples = 1\nvalue = [0, 1]"] ;
230 -> 232 ;
233 [label="RevolvingUtilizationOfUnsecuredLines <= 0.1813\ngini = 0.0091\nsamples = 438\nvalue = [436, 2]"] ;
229 -> 233 ;
234 [label="DebtRatio <= 0.2913\ngini = 0.005\nsamples = 400\nvalue = [399, 1]"] ;
233 -> 234 ;
235 [label="DebtRatio <= 0.285\ngini = 0.0377\nsamples = 52\nvalue = [51, 1]"] ;
234 -> 235 ;
236 [label="gini = 0.0\nsamples = 51\nvalue = [51, 0]"] ;
235 -> 236 ;
237 [label="gini = 0.0\nsamples = 1\nvalue = [0, 1]"] ;
235 -> 237 ;
238 [label="gini = 0.0\nsamples = 348\nvalue = [348, 0]"] ;
234 -> 238 ;
239 [label="RevolvingUtilizationOfUnsecuredLines <= 0.1815\ngini = 0.0512\nsamples = 38\nvalue = [37, 1]"] ;
233 -> 239 ;
240 [label="gini = 0.0\nsamples = 1\nvalue = [0, 1]"] ;
239 -> 240 ;
241 [label="gini = 0.0\nsamples = 37\nvalue = [37, 0]"] ;
239 -> 241 ;
242 [label="NumberOfDependents <= 3.5\ngini = 0.0825\nsamples = 116\nvalue = [111, 5]"] ;
180 -> 242 ;
243 [label="DebtRatio <= 0.395\ngini = 0.0683\nsamples = 113\nvalue = [109, 4]"] ;
242 -> 243 ;
244 [label="gini = 0.0\nsamples = 78\nvalue = [78, 0]"] ;
243 -> 244 ;
245 [label="DebtRatio <= 0.4009\ngini = 0.2024\nsamples = 35\nvalue = [31, 4]"] ;
243 -> 245 ;
246 [label="gini = 0.0\nsamples = 1\nvalue = [0, 1]"] ;
245 -> 246 ;
247 [label="MonthlyIncome <= 4988.5\ngini = 0.1609\nsamples = 34\nvalue = [31, 3]"] ;
245 -> 247 ;
248 [label="gini = 0.0\nsamples = 18\nvalue = [18, 0]"] ;
247 -> 248 ;
249 [label="NumberOfOpenCreditLinesAndLoans <= 4.5\ngini = 0.3047\nsamples = 16\nvalue = [13, 3]"] ;
247 -> 249 ;
250 [label="gini = 0.0\nsamples = 1\nvalue = [0, 1]"] ;
249 -> 250 ;
251 [label="age <= 34.5\ngini = 0.2311\nsamples = 15\nvalue = [13, 2]"] ;
249 -> 251 ;
252 [label="gini = 0.0\nsamples = 6\nvalue = [6, 0]"] ;
251 -> 252 ;
253 [label="age <= 35.5\ngini = 0.3457\nsamples = 9\nvalue = [7, 2]"] ;
251 -> 253 ;
254 [label="gini = 0.0\nsamples = 1\nvalue = [0, 1]"] ;
253 -> 254 ;
255 [label="RevolvingUtilizationOfUnsecuredLines <= 0.028\ngini = 0.2188\nsamples = 8\nvalue = [7, 1]"] ;
253 -> 255 ;
256 [label="RevolvingUtilizationOfUnsecuredLines <= 0.0152\ngini = 0.4444\nsamples = 3\nvalue = [2, 1]"] ;
255 -> 256 ;
257 [label="gini = 0.0\nsamples = 2\nvalue = [2, 0]"] ;
256 -> 257 ;
258 [label="gini = 0.0\nsamples = 1\nvalue = [0, 1]"] ;
256 -> 258 ;
259 [label="gini = 0.0\nsamples = 5\nvalue = [5, 0]"] ;
255 -> 259 ;
260 [label="age <= 35.5\ngini = 0.4444\nsamples = 3\nvalue = [2, 1]"] ;
242 -> 260 ;
261 [label="gini = 0.0\nsamples = 1\nvalue = [0, 1]"] ;
260 -> 261 ;
262 [label="gini = 0.0\nsamples = 2\nvalue = [2, 0]"] ;
260 -> 262 ;
263 [label="DebtRatio <= 2790.0\ngini = 0.0685\nsamples = 338\nvalue = [326, 12]"] ;
179 -> 263 ;
264 [label="RevolvingUtilizationOfUnsecuredLines <= 0.0855\ngini = 0.0637\nsamples = 334\nvalue = [323, 11]"] ;
263 -> 264 ;
265 [label="DebtRatio <= 0.059\ngini = 0.044\nsamples = 222\nvalue = [217, 5]"] ;
264 -> 265 ;
266 [label="DebtRatio <= 0.0484\ngini = 0.142\nsamples = 39\nvalue = [36, 3]"] ;
265 -> 266 ;
267 [label="NumberOfOpenCreditLinesAndLoans <= 6.5\ngini = 0.0997\nsamples = 38\nvalue = [36, 2]"] ;
266 -> 267 ;
268 [label="DebtRatio <= 0.0214\ngini = 0.0588\nsamples = 33\nvalue = [32, 1]"] ;
267 -> 268 ;
269 [label="gini = 0.0\nsamples = 28\nvalue = [28, 0]"] ;
268 -> 269 ;
270 [label="DebtRatio <= 0.0234\ngini = 0.32\nsamples = 5\nvalue = [4, 1]"] ;
268 -> 270 ;
271 [label="gini = 0.0\nsamples = 1\nvalue = [0, 1]"] ;
270 -> 271 ;
272 [label="gini = 0.0\nsamples = 4\nvalue = [4, 0]"] ;
270 -> 272 ;
273 [label="RevolvingUtilizationOfUnsecuredLines <= 0.0109\ngini = 0.32\nsamples = 5\nvalue = [4, 1]"] ;
267 -> 273 ;
274 [label="gini = 0.0\nsamples = 3\nvalue = [3, 0]"] ;
273 -> 274 ;
275 [label="MonthlyIncome <= 4400.0\ngini = 0.5\nsamples = 2\nvalue = [1, 1]"] ;
273 -> 275 ;
276 [label="gini = 0.0\nsamples = 1\nvalue = [0, 1]"] ;
275 -> 276 ;
277 [label="gini = 0.0\nsamples = 1\nvalue = [1, 0]"] ;
275 -> 277 ;
278 [label="gini = 0.0\nsamples = 1\nvalue = [0, 1]"] ;
266 -> 278 ;
279 [label="RevolvingUtilizationOfUnsecuredLines <= 0.0008\ngini = 0.0216\nsamples = 183\nvalue = [181, 2]"] ;
265 -> 279 ;
280 [label="RevolvingUtilizationOfUnsecuredLines <= 0.0004\ngini = 0.0713\nsamples = 54\nvalue = [52, 2]"] ;
279 -> 280 ;
281 [label="NumberRealEstateLoansOrLines <= 0.5\ngini = 0.037\nsamples = 53\nvalue = [52, 1]"] ;
280 -> 281 ;
282 [label="DebtRatio <= 0.2757\ngini = 0.1244\nsamples = 15\nvalue = [14, 1]"] ;
281 -> 282 ;
283 [label="gini = 0.0\nsamples = 13\nvalue = [13, 0]"] ;
282 -> 283 ;
284 [label="MonthlyIncome <= 2078.0\ngini = 0.5\nsamples = 2\nvalue = [1, 1]"] ;
282 -> 284 ;
285 [label="gini = 0.0\nsamples = 1\nvalue = [1, 0]"] ;
284 -> 285 ;
286 [label="gini = 0.0\nsamples = 1\nvalue = [0, 1]"] ;
284 -> 286 ;
287 [label="gini = 0.0\nsamples = 38\nvalue = [38, 0]"] ;
281 -> 287 ;
288 [label="gini = 0.0\nsamples = 1\nvalue = [0, 1]"] ;
280 -> 288 ;
289 [label="gini = 0.0\nsamples = 129\nvalue = [129, 0]"] ;
279 -> 289 ;
290 [label="RevolvingUtilizationOfUnsecuredLines <= 0.0872\ngini = 0.1014\nsamples = 112\nvalue = [106, 6]"] ;
264 -> 290 ;
291 [label="gini = 0.0\nsamples = 1\nvalue = [0, 1]"] ;
290 -> 291 ;
292 [label="RevolvingUtilizationOfUnsecuredLines <= 0.1125\ngini = 0.086\nsamples = 111\nvalue = [106, 5]"] ;
290 -> 292 ;
293 [label="RevolvingUtilizationOfUnsecuredLines <= 0.1097\ngini = 0.3047\nsamples = 16\nvalue = [13, 3]"] ;
292 -> 293 ;
294 [label="NumberOfDependents <= 1.5\ngini = 0.2311\nsamples = 15\nvalue = [13, 2]"] ;
293 -> 294 ;
295 [label="RevolvingUtilizationOfUnsecuredLines <= 0.0888\ngini = 0.5\nsamples = 4\nvalue = [2, 2]"] ;
294 -> 295 ;
296 [label="gini = 0.0\nsamples = 1\nvalue = [1, 0]"] ;
295 -> 296 ;
297 [label="NumberRealEstateLoansOrLines <= 0.5\ngini = 0.4444\nsamples = 3\nvalue = [1, 2]"] ;
295 -> 297 ;
298 [label="gini = 0.0\nsamples = 1\nvalue = [1, 0]"] ;
297 -> 298 ;
299 [label="gini = 0.0\nsamples = 2\nvalue = [0, 2]"] ;
297 -> 299 ;
300 [label="gini = 0.0\nsamples = 11\nvalue = [11, 0]"] ;
294 -> 300 ;
301 [label="gini = 0.0\nsamples = 1\nvalue = [0, 1]"] ;
293 -> 301 ;
302 [label="NumberOfDependents <= 3.5\ngini = 0.0412\nsamples = 95\nvalue = [93, 2]"] ;
292 -> 302 ;
303 [label="RevolvingUtilizationOfUnsecuredLines <= 0.1325\ngini = 0.0222\nsamples = 89\nvalue = [88, 1]"] ;
302 -> 303 ;
304 [label="RevolvingUtilizationOfUnsecuredLines <= 0.1313\ngini = 0.1049\nsamples = 18\nvalue = [17, 1]"] ;
303 -> 304 ;
305 [label="gini = 0.0\nsamples = 17\nvalue = [17, 0]"] ;
304 -> 305 ;
306 [label="gini = 0.0\nsamples = 1\nvalue = [0, 1]"] ;
304 -> 306 ;
307 [label="gini = 0.0\nsamples = 71\nvalue = [71, 0]"] ;
303 -> 307 ;
308 [label="NumberOfOpenCreditLinesAndLoans <= 7.0\ngini = 0.2778\nsamples = 6\nvalue = [5, 1]"] ;
302 -> 308 ;
309 [label="gini = 0.0\nsamples = 4\nvalue = [4, 0]"] ;
308 -> 309 ;
310 [label="NumberRealEstateLoansOrLines <= 0.5\ngini = 0.5\nsamples = 2\nvalue = [1, 1]"] ;
308 -> 310 ;
311 [label="gini = 0.0\nsamples = 1\nvalue = [0, 1]"] ;
310 -> 311 ;
312 [label="gini = 0.0\nsamples = 1\nvalue = [1, 0]"] ;
310 -> 312 ;
313 [label="age <= 42.5\ngini = 0.375\nsamples = 4\nvalue = [3, 1]"] ;
263 -> 313 ;
314 [label="gini = 0.0\nsamples = 3\nvalue = [3, 0]"] ;
313 -> 314 ;
315 [label="gini = 0.0\nsamples = 1\nvalue = [0, 1]"] ;
313 -> 315 ;
316 [label="RevolvingUtilizationOfUnsecuredLines <= 0.2277\ngini = 0.1653\nsamples = 33\nvalue = [30, 3]"] ;
12 -> 316 ;
317 [label="gini = 0.0\nsamples = 1\nvalue = [0, 1]"] ;
316 -> 317 ;
318 [label="DebtRatio <= 0.5378\ngini = 0.1172\nsamples = 32\nvalue = [30, 2]"] ;
316 -> 318 ;
319 [label="gini = 0.0\nsamples = 24\nvalue = [24, 0]"] ;
318 -> 319 ;
320 [label="DebtRatio <= 0.5862\ngini = 0.375\nsamples = 8\nvalue = [6, 2]"] ;
318 -> 320 ;
321 [label="age <= 40.5\ngini = 0.4444\nsamples = 3\nvalue = [1, 2]"] ;
320 -> 321 ;
322 [label="gini = 0.0\nsamples = 2\nvalue = [0, 2]"] ;
321 -> 322 ;
323 [label="gini = 0.0\nsamples = 1\nvalue = [1, 0]"] ;
321 -> 323 ;
324 [label="gini = 0.0\nsamples = 5\nvalue = [5, 0]"] ;
320 -> 324 ;
325 [label="DebtRatio <= 0.2514\ngini = 0.5\nsamples = 2\nvalue = [1, 1]"] ;
11 -> 325 ;
326 [label="gini = 0.0\nsamples = 1\nvalue = [1, 0]"] ;
325 -> 326 ;
327 [label="gini = 0.0\nsamples = 1\nvalue = [0, 1]"] ;
325 -> 327 ;
328 [label="age <= 26.5\ngini = 0.0185\nsamples = 4288\nvalue = [4248, 40]"] ;
10 -> 328 ;
329 [label="NumberOfOpenCreditLinesAndLoans <= 6.5\ngini = 0.0622\nsamples = 218\nvalue = [211, 7]"] ;
328 -> 329 ;
330 [label="RevolvingUtilizationOfUnsecuredLines <= 0.0692\ngini = 0.0392\nsamples = 200\nvalue = [196, 4]"] ;
329 -> 330 ;
331 [label="MonthlyIncome <= 6125.0\ngini = 0.0161\nsamples = 123\nvalue = [122, 1]"] ;
330 -> 331 ;
332 [label="gini = 0.0\nsamples = 114\nvalue = [114, 0]"] ;
331 -> 332 ;
333 [label="DebtRatio <= 0.0015\ngini = 0.1975\nsamples = 9\nvalue = [8, 1]"] ;
331 -> 333 ;
334 [label="gini = 0.0\nsamples = 1\nvalue = [0, 1]"] ;
333 -> 334 ;
335 [label="gini = 0.0\nsamples = 8\nvalue = [8, 0]"] ;
333 -> 335 ;
336 [label="RevolvingUtilizationOfUnsecuredLines <= 0.0712\ngini = 0.0749\nsamples = 77\nvalue = [74, 3]"] ;
330 -> 336 ;
337 [label="gini = 0.0\nsamples = 1\nvalue = [0, 1]"] ;
336 -> 337 ;
338 [label="RevolvingUtilizationOfUnsecuredLines <= 0.1347\ngini = 0.0512\nsamples = 76\nvalue = [74, 2]"] ;
336 -> 338 ;
339 [label="RevolvingUtilizationOfUnsecuredLines <= 0.1328\ngini = 0.095\nsamples = 40\nvalue = [38, 2]"] ;
338 -> 339 ;
340 [label="NumberOfOpenCreditLinesAndLoans <= 1.5\ngini = 0.05\nsamples = 39\nvalue = [38, 1]"] ;
339 -> 340 ;
341 [label="age <= 24.5\ngini = 0.32\nsamples = 5\nvalue = [4, 1]"] ;
340 -> 341 ;
342 [label="gini = 0.0\nsamples = 3\nvalue = [3, 0]"] ;
341 -> 342 ;
343 [label="RevolvingUtilizationOfUnsecuredLines <= 0.1021\ngini = 0.5\nsamples = 2\nvalue = [1, 1]"] ;
341 -> 343 ;
344 [label="gini = 0.0\nsamples = 1\nvalue = [0, 1]"] ;
343 -> 344 ;
345 [label="gini = 0.0\nsamples = 1\nvalue = [1, 0]"] ;
343 -> 345 ;
346 [label="gini = 0.0\nsamples = 34\nvalue = [34, 0]"] ;
340 -> 346 ;
347 [label="gini = 0.0\nsamples = 1\nvalue = [0, 1]"] ;
339 -> 347 ;
348 [label="gini = 0.0\nsamples = 36\nvalue = [36, 0]"] ;
338 -> 348 ;
349 [label="RevolvingUtilizationOfUnsecuredLines <= 0.0031\ngini = 0.2778\nsamples = 18\nvalue = [15, 3]"] ;
329 -> 349 ;
350 [label="DebtRatio <= 0.104\ngini = 0.4444\nsamples = 3\nvalue = [1, 2]"] ;
349 -> 350 ;
351 [label="gini = 0.0\nsamples = 1\nvalue = [1, 0]"] ;
350 -> 351 ;
352 [label="gini = 0.0\nsamples = 2\nvalue = [0, 2]"] ;
350 -> 352 ;
353 [label="RevolvingUtilizationOfUnsecuredLines <= 0.1914\ngini = 0.1244\nsamples = 15\nvalue = [14, 1]"] ;
349 -> 353 ;
354 [label="gini = 0.0\nsamples = 14\nvalue = [14, 0]"] ;
353 -> 354 ;
355 [label="gini = 0.0\nsamples = 1\nvalue = [0, 1]"] ;
353 -> 355 ;
356 [label="RevolvingUtilizationOfUnsecuredLines <= 0.0985\ngini = 0.0161\nsamples = 4070\nvalue = [4037, 33]"] ;
328 -> 356 ;
357 [label="NumberRealEstateLoansOrLines <= 2.5\ngini = 0.0116\nsamples = 2905\nvalue = [2888, 17]"] ;
356 -> 357 ;
358 [label="NumberOfOpenCreditLinesAndLoans <= 3.5\ngini = 0.0106\nsamples = 2821\nvalue = [2806, 15]"] ;
357 -> 358 ;
359 [label="NumberRealEstateLoansOrLines <= 0.5\ngini = 0.0219\nsamples = 543\nvalue = [537, 6]"] ;
358 -> 359 ;
360 [label="age <= 34.5\ngini = 0.031\nsamples = 381\nvalue = [375, 6]"] ;
359 -> 360 ;
361 [label="DebtRatio <= 66.0\ngini = 0.01\nsamples = 198\nvalue = [197, 1]"] ;
360 -> 361 ;
362 [label="gini = 0.0\nsamples = 154\nvalue = [154, 0]"] ;
361 -> 362 ;
363 [label="DebtRatio <= 68.5\ngini = 0.0444\nsamples = 44\nvalue = [43, 1]"] ;
361 -> 363 ;
364 [label="gini = 0.0\nsamples = 1\nvalue = [0, 1]"] ;
363 -> 364 ;
365 [label="gini = 0.0\nsamples = 43\nvalue = [43, 0]"] ;
363 -> 365 ;
366 [label="RevolvingUtilizationOfUnsecuredLines <= 0.0049\ngini = 0.0532\nsamples = 183\nvalue = [178, 5]"] ;
360 -> 366 ;
367 [label="RevolvingUtilizationOfUnsecuredLines <= 0.0041\ngini = 0.0997\nsamples = 76\nvalue = [72, 4]"] ;
366 -> 367 ;
368 [label="age <= 35.5\ngini = 0.0768\nsamples = 75\nvalue = [72, 3]"] ;
367 -> 368 ;
369 [label="NumberOfOpenCreditLinesAndLoans <= 2.0\ngini = 0.2449\nsamples = 7\nvalue = [6, 1]"] ;
368 -> 369 ;
370 [label="gini = 0.0\nsamples = 1\nvalue = [0, 1]"] ;
369 -> 370 ;
371 [label="gini = 0.0\nsamples = 6\nvalue = [6, 0]"] ;
369 -> 371 ;
372 [label="NumberOfOpenCreditLinesAndLoans <= 2.5\ngini = 0.0571\nsamples = 68\nvalue = [66, 2]"] ;
368 -> 372 ;
373 [label="gini = 0.0\nsamples = 38\nvalue = [38, 0]"] ;
372 -> 373 ;
374 [label="DebtRatio <= 0.0324\ngini = 0.1244\nsamples = 30\nvalue = [28, 2]"] ;
372 -> 374 ;
375 [label="DebtRatio <= 0.0137\ngini = 0.2778\nsamples = 6\nvalue = [5, 1]"] ;
374 -> 375 ;
376 [label="gini = 0.0\nsamples = 5\nvalue = [5, 0]"] ;
375 -> 376 ;
377 [label="gini = 0.0\nsamples = 1\nvalue = [0, 1]"] ;
375 -> 377 ;
378 [label="age <= 41.5\ngini = 0.0799\nsamples = 24\nvalue = [23, 1]"] ;
374 -> 378 ;
379 [label="gini = 0.0\nsamples = 15\nvalue = [15, 0]"] ;
378 -> 379 ;
380 [label="DebtRatio <= 2.0\ngini = 0.1975\nsamples = 9\nvalue = [8, 1]"] ;
378 -> 380 ;
381 [label="gini = 0.0\nsamples = 6\nvalue = [6, 0]"] ;
380 -> 381 ;
382 [label="DebtRatio <= 6.5\ngini = 0.4444\nsamples = 3\nvalue = [2, 1]"] ;
380 -> 382 ;
383 [label="gini = 0.0\nsamples = 1\nvalue = [0, 1]"] ;
382 -> 383 ;
384 [label="gini = 0.0\nsamples = 2\nvalue = [2, 0]"] ;
382 -> 384 ;
385 [label="gini = 0.0\nsamples = 1\nvalue = [0, 1]"] ;
367 -> 385 ;
386 [label="DebtRatio <= 20.5\ngini = 0.0185\nsamples = 107\nvalue = [106, 1]"] ;
366 -> 386 ;
387 [label="gini = 0.0\nsamples = 78\nvalue = [78, 0]"] ;
386 -> 387 ;
388 [label="DebtRatio <= 22.5\ngini = 0.0666\nsamples = 29\nvalue = [28, 1]"] ;
386 -> 388 ;
389 [label="NumberOfOpenCreditLinesAndLoans <= 1.5\ngini = 0.4444\nsamples = 3\nvalue = [2, 1]"] ;
388 -> 389 ;
390 [label="gini = 0.0\nsamples = 1\nvalue = [1, 0]"] ;
389 -> 390 ;
391 [label="age <= 39.0\ngini = 0.5\nsamples = 2\nvalue = [1, 1]"] ;
389 -> 391 ;
392 [label="gini = 0.0\nsamples = 1\nvalue = [0, 1]"] ;
391 -> 392 ;
393 [label="gini = 0.0\nsamples = 1\nvalue = [1, 0]"] ;
391 -> 393 ;
394 [label="gini = 0.0\nsamples = 26\nvalue = [26, 0]"] ;
388 -> 394 ;
395 [label="gini = 0.0\nsamples = 162\nvalue = [162, 0]"] ;
359 -> 395 ;
396 [label="MonthlyIncome <= 6328.0\ngini = 0.0079\nsamples = 2278\nvalue = [2269, 9]"] ;
358 -> 396 ;
397 [label="NumberOfDependents <= 0.5\ngini = 0.0034\nsamples = 1188\nvalue = [1186, 2]"] ;
396 -> 397 ;
398 [label="gini = 0.0\nsamples = 839\nvalue = [839, 0]"] ;
397 -> 398 ;
399 [label="DebtRatio <= 0.4041\ngini = 0.0114\nsamples = 349\nvalue = [347, 2]"] ;
397 -> 399 ;
400 [label="gini = 0.0\nsamples = 198\nvalue = [198, 0]"] ;
399 -> 400 ;
401 [label="DebtRatio <= 0.4052\ngini = 0.0261\nsamples = 151\nvalue = [149, 2]"] ;
399 -> 401 ;
402 [label="gini = 0.0\nsamples = 1\nvalue = [0, 1]"] ;
401 -> 402 ;
403 [label="NumberOfOpenCreditLinesAndLoans <= 4.5\ngini = 0.0132\nsamples = 150\nvalue = [149, 1]"] ;
401 -> 403 ;
404 [label="age <= 41.5\ngini = 0.0666\nsamples = 29\nvalue = [28, 1]"] ;
403 -> 404 ;
405 [label="gini = 0.0\nsamples = 21\nvalue = [21, 0]"] ;
404 -> 405 ;
406 [label="age <= 42.5\ngini = 0.2188\nsamples = 8\nvalue = [7, 1]"] ;
404 -> 406 ;
407 [label="DebtRatio <= 668.5\ngini = 0.5\nsamples = 2\nvalue = [1, 1]"] ;
406 -> 407 ;
408 [label="gini = 0.0\nsamples = 1\nvalue = [1, 0]"] ;
407 -> 408 ;
409 [label="gini = 0.0\nsamples = 1\nvalue = [0, 1]"] ;
407 -> 409 ;
410 [label="gini = 0.0\nsamples = 6\nvalue = [6, 0]"] ;
406 -> 410 ;
411 [label="gini = 0.0\nsamples = 121\nvalue = [121, 0]"] ;
403 -> 411 ;
412 [label="MonthlyIncome <= 6336.0\ngini = 0.0128\nsamples = 1090\nvalue = [1083, 7]"] ;
396 -> 412 ;
413 [label="NumberOfDependents <= 2.5\ngini = 0.2188\nsamples = 8\nvalue = [7, 1]"] ;
412 -> 413 ;
414 [label="gini = 0.0\nsamples = 7\nvalue = [7, 0]"] ;
413 -> 414 ;
415 [label="gini = 0.0\nsamples = 1\nvalue = [0, 1]"] ;
413 -> 415 ;
416 [label="DebtRatio <= 0.478\ngini = 0.011\nsamples = 1082\nvalue = [1076, 6]"] ;
412 -> 416 ;
417 [label="MonthlyIncome <= 6501.0\ngini = 0.0078\nsamples = 1020\nvalue = [1016, 4]"] ;
416 -> 417 ;
418 [label="age <= 41.5\ngini = 0.0476\nsamples = 41\nvalue = [40, 1]"] ;
417 -> 418 ;
419 [label="gini = 0.0\nsamples = 36\nvalue = [36, 0]"] ;
418 -> 419 ;
420 [label="DebtRatio <= 0.3256\ngini = 0.32\nsamples = 5\nvalue = [4, 1]"] ;
418 -> 420 ;
421 [label="gini = 0.0\nsamples = 3\nvalue = [3, 0]"] ;
420 -> 421 ;
422 [label="RevolvingUtilizationOfUnsecuredLines <= 0.0084\ngini = 0.5\nsamples = 2\nvalue = [1, 1]"] ;
420 -> 422 ;
423 [label="gini = 0.0\nsamples = 1\nvalue = [1, 0]"] ;
422 -> 423 ;
424 [label="gini = 0.0\nsamples = 1\nvalue = [0, 1]"] ;
422 -> 424 ;
425 [label="age <= 37.5\ngini = 0.0061\nsamples = 979\nvalue = [976, 3]"] ;
417 -> 425 ;
426 [label="RevolvingUtilizationOfUnsecuredLines <= 0.0274\ngini = 0.0147\nsamples = 405\nvalue = [402, 3]"] ;
425 -> 426 ;
427 [label="RevolvingUtilizationOfUnsecuredLines <= 0.0272\ngini = 0.0286\nsamples = 207\nvalue = [204, 3]"] ;
426 -> 427 ;
428 [label="NumberRealEstateLoansOrLines <= 1.5\ngini = 0.0192\nsamples = 206\nvalue = [204, 2]"] ;
427 -> 428 ;
429 [label="gini = 0.0\nsamples = 148\nvalue = [148, 0]"] ;
428 -> 429 ;
430 [label="DebtRatio <= 0.313\ngini = 0.0666\nsamples = 58\nvalue = [56, 2]"] ;
428 -> 430 ;
431 [label="DebtRatio <= 0.3002\ngini = 0.1139\nsamples = 33\nvalue = [31, 2]"] ;
430 -> 431 ;
432 [label="MonthlyIncome <= 7450.0\ngini = 0.0605\nsamples = 32\nvalue = [31, 1]"] ;
431 -> 432 ;
433 [label="MonthlyIncome <= 7241.0\ngini = 0.32\nsamples = 5\nvalue = [4, 1]"] ;
432 -> 433 ;
434 [label="gini = 0.0\nsamples = 4\nvalue = [4, 0]"] ;
433 -> 434 ;
435 [label="gini = 0.0\nsamples = 1\nvalue = [0, 1]"] ;
433 -> 435 ;
436 [label="gini = 0.0\nsamples = 27\nvalue = [27, 0]"] ;
432 -> 436 ;
437 [label="gini = 0.0\nsamples = 1\nvalue = [0, 1]"] ;
431 -> 437 ;
438 [label="gini = 0.0\nsamples = 25\nvalue = [25, 0]"] ;
430 -> 438 ;
439 [label="gini = 0.0\nsamples = 1\nvalue = [0, 1]"] ;
427 -> 439 ;
440 [label="gini = 0.0\nsamples = 198\nvalue = [198, 0]"] ;
426 -> 440 ;
441 [label="gini = 0.0\nsamples = 574\nvalue = [574, 0]"] ;
425 -> 441 ;
442 [label="DebtRatio <= 0.4804\ngini = 0.0624\nsamples = 62\nvalue = [60, 2]"] ;
416 -> 442 ;
443 [label="gini = 0.0\nsamples = 1\nvalue = [0, 1]"] ;
442 -> 443 ;
444 [label="age <= 32.5\ngini = 0.0322\nsamples = 61\nvalue = [60, 1]"] ;
442 -> 444 ;
445 [label="MonthlyIncome <= 7041.5\ngini = 0.2449\nsamples = 7\nvalue = [6, 1]"] ;
444 -> 445 ;
446 [label="MonthlyIncome <= 6700.0\ngini = 0.5\nsamples = 2\nvalue = [1, 1]"] ;
445 -> 446 ;
447 [label="gini = 0.0\nsamples = 1\nvalue = [1, 0]"] ;
446 -> 447 ;
448 [label="gini = 0.0\nsamples = 1\nvalue = [0, 1]"] ;
446 -> 448 ;
449 [label="gini = 0.0\nsamples = 5\nvalue = [5, 0]"] ;
445 -> 449 ;
450 [label="gini = 0.0\nsamples = 54\nvalue = [54, 0]"] ;
444 -> 450 ;
451 [label="age <= 28.5\ngini = 0.0465\nsamples = 84\nvalue = [82, 2]"] ;
357 -> 451 ;
452 [label="gini = 0.0\nsamples = 1\nvalue = [0, 1]"] ;
451 -> 452 ;
453 [label="DebtRatio <= 3775.0\ngini = 0.0238\nsamples = 83\nvalue = [82, 1]"] ;
451 -> 453 ;
454 [label="gini = 0.0\nsamples = 73\nvalue = [73, 0]"] ;
453 -> 454 ;
455 [label="age <= 34.5\ngini = 0.18\nsamples = 10\nvalue = [9, 1]"] ;
453 -> 455 ;
456 [label="gini = 0.0\nsamples = 1\nvalue = [0, 1]"] ;
455 -> 456 ;
457 [label="gini = 0.0\nsamples = 9\nvalue = [9, 0]"] ;
455 -> 457 ;
458 [label="RevolvingUtilizationOfUnsecuredLines <= 0.0987\ngini = 0.0271\nsamples = 1165\nvalue = [1149, 16]"] ;
356 -> 458 ;
459 [label="gini = 0.0\nsamples = 1\nvalue = [0, 1]"] ;
458 -> 459 ;
460 [label="DebtRatio <= 0.3473\ngini = 0.0254\nsamples = 1164\nvalue = [1149, 15]"] ;
458 -> 460 ;
461 [label="MonthlyIncome <= 8366.5\ngini = 0.0138\nsamples = 575\nvalue = [571, 4]"] ;
460 -> 461 ;
462 [label="MonthlyIncome <= 8288.5\ngini = 0.0227\nsamples = 348\nvalue = [344, 4]"] ;
461 -> 462 ;
463 [label="NumberOfDependents <= 1.5\ngini = 0.0119\nsamples = 335\nvalue = [333, 2]"] ;
462 -> 463 ;
464 [label="gini = 0.0\nsamples = 211\nvalue = [211, 0]"] ;
463 -> 464 ;
465 [label="RevolvingUtilizationOfUnsecuredLines <= 0.1628\ngini = 0.0317\nsamples = 124\nvalue = [122, 2]"] ;
463 -> 465 ;
466 [label="gini = 0.0\nsamples = 70\nvalue = [70, 0]"] ;
465 -> 466 ;
467 [label="RevolvingUtilizationOfUnsecuredLines <= 0.1634\ngini = 0.0713\nsamples = 54\nvalue = [52, 2]"] ;
465 -> 467 ;
468 [label="gini = 0.0\nsamples = 1\nvalue = [0, 1]"] ;
467 -> 468 ;
469 [label="MonthlyIncome <= 7666.5\ngini = 0.037\nsamples = 53\nvalue = [52, 1]"] ;
467 -> 469 ;
470 [label="gini = 0.0\nsamples = 45\nvalue = [45, 0]"] ;
469 -> 470 ;
471 [label="MonthlyIncome <= 7760.5\ngini = 0.2188\nsamples = 8\nvalue = [7, 1]"] ;
469 -> 471 ;
472 [label="gini = 0.0\nsamples = 1\nvalue = [0, 1]"] ;
471 -> 472 ;
473 [label="gini = 0.0\nsamples = 7\nvalue = [7, 0]"] ;
471 -> 473 ;
474 [label="DebtRatio <= 0.105\ngini = 0.2604\nsamples = 13\nvalue = [11, 2]"] ;
462 -> 474 ;
475 [label="gini = 0.0\nsamples = 2\nvalue = [0, 2]"] ;
474 -> 475 ;
476 [label="gini = 0.0\nsamples = 11\nvalue = [11, 0]"] ;
474 -> 476 ;
477 [label="gini = 0.0\nsamples = 227\nvalue = [227, 0]"] ;
461 -> 477 ;
478 [label="DebtRatio <= 0.3482\ngini = 0.0367\nsamples = 589\nvalue = [578, 11]"] ;
460 -> 478 ;
479 [label="gini = 0.0\nsamples = 1\nvalue = [0, 1]"] ;
478 -> 479 ;
480 [label="DebtRatio <= 0.3931\ngini = 0.0334\nsamples = 588\nvalue = [578, 10]"] ;
478 -> 480 ;
481 [label="DebtRatio <= 0.3924\ngini = 0.0935\nsamples = 61\nvalue = [58, 3]"] ;
480 -> 481 ;
482 [label="DebtRatio <= 0.3843\ngini = 0.0644\nsamples = 60\nvalue = [58, 2]"] ;
481 -> 482 ;
483 [label="gini = 0.0\nsamples = 44\nvalue = [44, 0]"] ;
482 -> 483 ;
484 [label="DebtRatio <= 0.3851\ngini = 0.2188\nsamples = 16\nvalue = [14, 2]"] ;
482 -> 484 ;
485 [label="gini = 0.0\nsamples = 2\nvalue = [0, 2]"] ;
484 -> 485 ;
486 [label="gini = 0.0\nsamples = 14\nvalue = [14, 0]"] ;
484 -> 486 ;
487 [label="gini = 0.0\nsamples = 1\nvalue = [0, 1]"] ;
481 -> 487 ;
488 [label="age <= 31.5\ngini = 0.0262\nsamples = 527\nvalue = [520, 7]"] ;
480 -> 488 ;
489 [label="NumberOfDependents <= 1.5\ngini = 0.074\nsamples = 78\nvalue = [75, 3]"] ;
488 -> 489 ;
490 [label="DebtRatio <= 357.0\ngini = 0.0506\nsamples = 77\nvalue = [75, 2]"] ;
489 -> 490 ;
491 [label="gini = 0.0\nsamples = 38\nvalue = [38, 0]"] ;
490 -> 491 ;
492 [label="DebtRatio <= 363.5\ngini = 0.0973\nsamples = 39\nvalue = [37, 2]"] ;
490 -> 492 ;
493 [label="gini = 0.0\nsamples = 1\nvalue = [0, 1]"] ;
492 -> 493 ;
494 [label="DebtRatio <= 727.5\ngini = 0.0512\nsamples = 38\nvalue = [37, 1]"] ;
492 -> 494 ;
495 [label="DebtRatio <= 724.5\ngini = 0.1327\nsamples = 14\nvalue = [13, 1]"] ;
494 -> 495 ;
496 [label="gini = 0.0\nsamples = 13\nvalue = [13, 0]"] ;
495 -> 496 ;
497 [label="gini = 0.0\nsamples = 1\nvalue = [0, 1]"] ;
495 -> 497 ;
498 [label="gini = 0.0\nsamples = 24\nvalue = [24, 0]"] ;
494 -> 498 ;
499 [label="gini = 0.0\nsamples = 1\nvalue = [0, 1]"] ;
489 -> 499 ;
500 [label="RevolvingUtilizationOfUnsecuredLines <= 0.1006\ngini = 0.0177\nsamples = 449\nvalue = [445, 4]"] ;
488 -> 500 ;
501 [label="RevolvingUtilizationOfUnsecuredLines <= 0.1006\ngini = 0.1172\nsamples = 16\nvalue = [15, 1]"] ;
500 -> 501 ;
502 [label="gini = 0.0\nsamples = 15\nvalue = [15, 0]"] ;
501 -> 502 ;
503 [label="gini = 0.0\nsamples = 1\nvalue = [0, 1]"] ;
501 -> 503 ;
504 [label="RevolvingUtilizationOfUnsecuredLines <= 0.1846\ngini = 0.0138\nsamples = 433\nvalue = [430, 3]"] ;
500 -> 504 ;
505 [label="NumberOfDependents <= 2.5\ngini = 0.0061\nsamples = 327\nvalue = [326, 1]"] ;
504 -> 505 ;
506 [label="gini = 0.0\nsamples = 298\nvalue = [298, 0]"] ;
505 -> 506 ;
507 [label="age <= 42.5\ngini = 0.0666\nsamples = 29\nvalue = [28, 1]"] ;
505 -> 507 ;
508 [label="gini = 0.0\nsamples = 22\nvalue = [22, 0]"] ;
507 -> 508 ;
509 [label="NumberOfOpenCreditLinesAndLoans <= 7.5\ngini = 0.2449\nsamples = 7\nvalue = [6, 1]"] ;
507 -> 509 ;
510 [label="gini = 0.0\nsamples = 4\nvalue = [4, 0]"] ;
509 -> 510 ;
511 [label="NumberOfDependents <= 3.5\ngini = 0.4444\nsamples = 3\nvalue = [2, 1]"] ;
509 -> 511 ;
512 [label="gini = 0.0\nsamples = 1\nvalue = [0, 1]"] ;
511 -> 512 ;
513 [label="gini = 0.0\nsamples = 2\nvalue = [2, 0]"] ;
511 -> 513 ;
514 [label="RevolvingUtilizationOfUnsecuredLines <= 0.185\ngini = 0.037\nsamples = 106\nvalue = [104, 2]"] ;
504 -> 514 ;
515 [label="gini = 0.0\nsamples = 1\nvalue = [0, 1]"] ;
514 -> 515 ;
516 [label="NumberRealEstateLoansOrLines <= 0.5\ngini = 0.0189\nsamples = 105\nvalue = [104, 1]"] ;
514 -> 516 ;
517 [label="DebtRatio <= 783.5\ngini = 0.0907\nsamples = 21\nvalue = [20, 1]"] ;
516 -> 517 ;
518 [label="gini = 0.0\nsamples = 18\nvalue = [18, 0]"] ;
517 -> 518 ;
519 [label="DebtRatio <= 824.5\ngini = 0.4444\nsamples = 3\nvalue = [2, 1]"] ;
517 -> 519 ;
520 [label="gini = 0.0\nsamples = 1\nvalue = [0, 1]"] ;
519 -> 520 ;
521 [label="gini = 0.0\nsamples = 2\nvalue = [2, 0]"] ;
519 -> 521 ;
522 [label="gini = 0.0\nsamples = 84\nvalue = [84, 0]"] ;
516 -> 522 ;
523 [label="DebtRatio <= 1.3199\ngini = 0.1723\nsamples = 21\nvalue = [19, 2]"] ;
9 -> 523 ;
524 [label="gini = 0.0\nsamples = 16\nvalue = [16, 0]"] ;
523 -> 524 ;
525 [label="RevolvingUtilizationOfUnsecuredLines <= 0.1318\ngini = 0.48\nsamples = 5\nvalue = [3, 2]"] ;
523 -> 525 ;
526 [label="RevolvingUtilizationOfUnsecuredLines <= 0.0333\ngini = 0.4444\nsamples = 3\nvalue = [1, 2]"] ;
525 -> 526 ;
527 [label="gini = 0.0\nsamples = 1\nvalue = [1, 0]"] ;
526 -> 527 ;
528 [label="gini = 0.0\nsamples = 2\nvalue = [0, 2]"] ;
526 -> 528 ;
529 [label="gini = 0.0\nsamples = 2\nvalue = [2, 0]"] ;
525 -> 529 ;
530 [label="RevolvingUtilizationOfUnsecuredLines <= 0.1324\ngini = 0.0525\nsamples = 4002\nvalue = [3894, 108]"] ;
8 -> 530 ;
531 [label="age <= 34.5\ngini = 0.0421\nsamples = 3018\nvalue = [2953, 65]"] ;
530 -> 531 ;
532 [label="MonthlyIncome <= 2984.0\ngini = 0.067\nsamples = 807\nvalue = [779, 28]"] ;
531 -> 532 ;
533 [label="MonthlyIncome <= 2930.5\ngini = 0.1318\nsamples = 141\nvalue = [131, 10]"] ;
532 -> 533 ;
534 [label="NumberOfDependents <= 3.5\ngini = 0.1085\nsamples = 139\nvalue = [131, 8]"] ;
533 -> 534 ;
535 [label="MonthlyIncome <= 1540.0\ngini = 0.0963\nsamples = 138\nvalue = [131, 7]"] ;
534 -> 535 ;
536 [label="gini = 0.0\nsamples = 48\nvalue = [48, 0]"] ;
535 -> 536 ;
537 [label="MonthlyIncome <= 1575.0\ngini = 0.1435\nsamples = 90\nvalue = [83, 7]"] ;
535 -> 537 ;
538 [label="gini = 0.0\nsamples = 1\nvalue = [0, 1]"] ;
537 -> 538 ;
539 [label="MonthlyIncome <= 2312.0\ngini = 0.1257\nsamples = 89\nvalue = [83, 6]"] ;
537 -> 539 ;
540 [label="NumberOfOpenCreditLinesAndLoans <= 11.5\ngini = 0.2142\nsamples = 41\nvalue = [36, 5]"] ;
539 -> 540 ;
541 [label="DebtRatio <= 0.1544\ngini = 0.074\nsamples = 26\nvalue = [25, 1]"] ;
540 -> 541 ;
542 [label="MonthlyIncome <= 2154.0\ngini = 0.375\nsamples = 4\nvalue = [3, 1]"] ;
541 -> 542 ;
543 [label="gini = 0.0\nsamples = 3\nvalue = [3, 0]"] ;
542 -> 543 ;
544 [label="gini = 0.0\nsamples = 1\nvalue = [0, 1]"] ;
542 -> 544 ;
545 [label="gini = 0.0\nsamples = 22\nvalue = [22, 0]"] ;
541 -> 545 ;
546 [label="age <= 33.5\ngini = 0.3911\nsamples = 15\nvalue = [11, 4]"] ;
540 -> 546 ;
547 [label="RevolvingUtilizationOfUnsecuredLines <= 0.0014\ngini = 0.2778\nsamples = 12\nvalue = [10, 2]"] ;
546 -> 547 ;
548 [label="gini = 0.0\nsamples = 1\nvalue = [0, 1]"] ;
547 -> 548 ;
549 [label="NumberOfDependents <= 1.5\ngini = 0.1653\nsamples = 11\nvalue = [10, 1]"] ;
547 -> 549 ;
550 [label="gini = 0.0\nsamples = 10\nvalue = [10, 0]"] ;
549 -> 550 ;
551 [label="gini = 0.0\nsamples = 1\nvalue = [0, 1]"] ;
549 -> 551 ;
552 [label="NumberOfOpenCreditLinesAndLoans <= 16.5\ngini = 0.4444\nsamples = 3\nvalue = [1, 2]"] ;
546 -> 552 ;
553 [label="gini = 0.0\nsamples = 2\nvalue = [0, 2]"] ;
552 -> 553 ;
554 [label="gini = 0.0\nsamples = 1\nvalue = [1, 0]"] ;
552 -> 554 ;
555 [label="RevolvingUtilizationOfUnsecuredLines <= 0.0001\ngini = 0.0408\nsamples = 48\nvalue = [47, 1]"] ;
539 -> 555 ;
556 [label="NumberOfOpenCreditLinesAndLoans <= 10.0\ngini = 0.1528\nsamples = 12\nvalue = [11, 1]"] ;
555 -> 556 ;
557 [label="NumberRealEstateLoansOrLines <= 0.5\ngini = 0.4444\nsamples = 3\nvalue = [2, 1]"] ;
556 -> 557 ;
558 [label="gini = 0.0\nsamples = 2\nvalue = [2, 0]"] ;
557 -> 558 ;
559 [label="gini = 0.0\nsamples = 1\nvalue = [0, 1]"] ;
557 -> 559 ;
560 [label="gini = 0.0\nsamples = 9\nvalue = [9, 0]"] ;
556 -> 560 ;
561 [label="gini = 0.0\nsamples = 36\nvalue = [36, 0]"] ;
555 -> 561 ;
562 [label="gini = 0.0\nsamples = 1\nvalue = [0, 1]"] ;
534 -> 562 ;
563 [label="gini = 0.0\nsamples = 2\nvalue = [0, 2]"] ;
533 -> 563 ;
564 [label="DebtRatio <= 0.3186\ngini = 0.0526\nsamples = 666\nvalue = [648, 18]"] ;
532 -> 564 ;
565 [label="MonthlyIncome <= 18000.0\ngini = 0.0195\nsamples = 304\nvalue = [301, 3]"] ;
564 -> 565 ;
566 [label="MonthlyIncome <= 12375.0\ngini = 0.0133\nsamples = 298\nvalue = [296, 2]"] ;
565 -> 566 ;
567 [label="NumberOfOpenCreditLinesAndLoans <= 18.5\ngini = 0.0072\nsamples = 277\nvalue = [276, 1]"] ;
566 -> 567 ;
568 [label="gini = 0.0\nsamples = 259\nvalue = [259, 0]"] ;
567 -> 568 ;
569 [label="NumberOfOpenCreditLinesAndLoans <= 19.5\ngini = 0.1049\nsamples = 18\nvalue = [17, 1]"] ;
567 -> 569 ;
570 [label="DebtRatio <= 0.0691\ngini = 0.375\nsamples = 4\nvalue = [3, 1]"] ;
569 -> 570 ;
571 [label="gini = 0.0\nsamples = 2\nvalue = [2, 0]"] ;
570 -> 571 ;
572 [label="NumberRealEstateLoansOrLines <= 0.5\ngini = 0.5\nsamples = 2\nvalue = [1, 1]"] ;
570 -> 572 ;
573 [label="gini = 0.0\nsamples = 1\nvalue = [0, 1]"] ;
572 -> 573 ;
574 [label="gini = 0.0\nsamples = 1\nvalue = [1, 0]"] ;
572 -> 574 ;
575 [label="gini = 0.0\nsamples = 14\nvalue = [14, 0]"] ;
569 -> 575 ;
576 [label="MonthlyIncome <= 12583.0\ngini = 0.0907\nsamples = 21\nvalue = [20, 1]"] ;
566 -> 576 ;
577 [label="age <= 32.0\ngini = 0.4444\nsamples = 3\nvalue = [2, 1]"] ;
576 -> 577 ;
578 [label="gini = 0.0\nsamples = 1\nvalue = [0, 1]"] ;
577 -> 578 ;
579 [label="gini = 0.0\nsamples = 2\nvalue = [2, 0]"] ;
577 -> 579 ;
580 [label="gini = 0.0\nsamples = 18\nvalue = [18, 0]"] ;
576 -> 580 ;
581 [label="NumberOfOpenCreditLinesAndLoans <= 11.5\ngini = 0.2778\nsamples = 6\nvalue = [5, 1]"] ;
565 -> 581 ;
582 [label="gini = 0.0\nsamples = 1\nvalue = [0, 1]"] ;
581 -> 582 ;
583 [label="gini = 0.0\nsamples = 5\nvalue = [5, 0]"] ;
581 -> 583 ;
584 [label="DebtRatio <= 0.321\ngini = 0.0794\nsamples = 362\nvalue = [347, 15]"] ;
564 -> 584 ;
585 [label="gini = 0.0\nsamples = 1\nvalue = [0, 1]"] ;
584 -> 585 ;
586 [label="RevolvingUtilizationOfUnsecuredLines <= 0.0044\ngini = 0.0746\nsamples = 361\nvalue = [347, 14]"] ;
584 -> 586 ;
587 [label="RevolvingUtilizationOfUnsecuredLines <= 0.004\ngini = 0.1713\nsamples = 74\nvalue = [67, 7]"] ;
586 -> 587 ;
588 [label="MonthlyIncome <= 3612.0\ngini = 0.1509\nsamples = 73\nvalue = [67, 6]"] ;
587 -> 588 ;
589 [label="gini = 0.0\nsamples = 1\nvalue = [0, 1]"] ;
588 -> 589 ;
590 [label="NumberRealEstateLoansOrLines <= 3.5\ngini = 0.1292\nsamples = 72\nvalue = [67, 5]"] ;
588 -> 590 ;
591 [label="DebtRatio <= 0.613\ngini = 0.1063\nsamples = 71\nvalue = [67, 4]"] ;
590 -> 591 ;
592 [label="DebtRatio <= 0.5899\ngini = 0.1884\nsamples = 38\nvalue = [34, 4]"] ;
591 -> 592 ;
593 [label="RevolvingUtilizationOfUnsecuredLines <= 0.0024\ngini = 0.149\nsamples = 37\nvalue = [34, 3]"] ;
592 -> 593 ;
594 [label="NumberOfDependents <= 1.5\ngini = 0.1078\nsamples = 35\nvalue = [33, 2]"] ;
593 -> 594 ;
595 [label="gini = 0.0\nsamples = 25\nvalue = [25, 0]"] ;
594 -> 595 ;
596 [label="age <= 33.5\ngini = 0.32\nsamples = 10\nvalue = [8, 2]"] ;
594 -> 596 ;
597 [label="DebtRatio <= 0.4685\ngini = 0.1975\nsamples = 9\nvalue = [8, 1]"] ;
596 -> 597 ;
598 [label="gini = 0.0\nsamples = 6\nvalue = [6, 0]"] ;
597 -> 598 ;
599 [label="DebtRatio <= 0.4799\ngini = 0.4444\nsamples = 3\nvalue = [2, 1]"] ;
597 -> 599 ;
600 [label="gini = 0.0\nsamples = 1\nvalue = [0, 1]"] ;
599 -> 600 ;
601 [label="gini = 0.0\nsamples = 2\nvalue = [2, 0]"] ;
599 -> 601 ;
602 [label="gini = 0.0\nsamples = 1\nvalue = [0, 1]"] ;
596 -> 602 ;
603 [label="RevolvingUtilizationOfUnsecuredLines <= 0.0027\ngini = 0.5\nsamples = 2\nvalue = [1, 1]"] ;
593 -> 603 ;
604 [label="gini = 0.0\nsamples = 1\nvalue = [0, 1]"] ;
603 -> 604 ;
605 [label="gini = 0.0\nsamples = 1\nvalue = [1, 0]"] ;
603 -> 605 ;
606 [label="gini = 0.0\nsamples = 1\nvalue = [0, 1]"] ;
592 -> 606 ;
607 [label="gini = 0.0\nsamples = 33\nvalue = [33, 0]"] ;
591 -> 607 ;
608 [label="gini = 0.0\nsamples = 1\nvalue = [0, 1]"] ;
590 -> 608 ;
609 [label="gini = 0.0\nsamples = 1\nvalue = [0, 1]"] ;
587 -> 609 ;
610 [label="RevolvingUtilizationOfUnsecuredLines <= 0.1225\ngini = 0.0476\nsamples = 287\nvalue = [280, 7]"] ;
586 -> 610 ;
611 [label="DebtRatio <= 0.3307\ngini = 0.036\nsamples = 273\nvalue = [268, 5]"] ;
610 -> 611 ;
612 [label="DebtRatio <= 0.3279\ngini = 0.375\nsamples = 4\nvalue = [3, 1]"] ;
611 -> 612 ;
613 [label="gini = 0.0\nsamples = 3\nvalue = [3, 0]"] ;
612 -> 613 ;
614 [label="gini = 0.0\nsamples = 1\nvalue = [0, 1]"] ;
612 -> 614 ;
615 [label="RevolvingUtilizationOfUnsecuredLines <= 0.0447\ngini = 0.0293\nsamples = 269\nvalue = [265, 4]"] ;
611 -> 615 ;
616 [label="gini = 0.0\nsamples = 120\nvalue = [120, 0]"] ;
615 -> 616 ;
617 [label="RevolvingUtilizationOfUnsecuredLines <= 0.0451\ngini = 0.0522\nsamples = 149\nvalue = [145, 4]"] ;
615 -> 617 ;
618 [label="gini = 0.0\nsamples = 1\nvalue = [0, 1]"] ;
617 -> 618 ;
619 [label="RevolvingUtilizationOfUnsecuredLines <= 0.0707\ngini = 0.0397\nsamples = 148\nvalue = [145, 3]"] ;
617 -> 619 ;
620 [label="RevolvingUtilizationOfUnsecuredLines <= 0.07\ngini = 0.1014\nsamples = 56\nvalue = [53, 3]"] ;
619 -> 620 ;
621 [label="NumberOfDependents <= 0.5\ngini = 0.0701\nsamples = 55\nvalue = [53, 2]"] ;
620 -> 621 ;
622 [label="gini = 0.0\nsamples = 34\nvalue = [34, 0]"] ;
621 -> 622 ;
623 [label="NumberRealEstateLoansOrLines <= 0.5\ngini = 0.1723\nsamples = 21\nvalue = [19, 2]"] ;
621 -> 623 ;
624 [label="NumberOfOpenCreditLinesAndLoans <= 11.0\ngini = 0.5\nsamples = 2\nvalue = [1, 1]"] ;
623 -> 624 ;
625 [label="gini = 0.0\nsamples = 1\nvalue = [0, 1]"] ;
624 -> 625 ;
626 [label="gini = 0.0\nsamples = 1\nvalue = [1, 0]"] ;
624 -> 626 ;
627 [label="MonthlyIncome <= 4916.5\ngini = 0.0997\nsamples = 19\nvalue = [18, 1]"] ;
623 -> 627 ;
628 [label="MonthlyIncome <= 3916.5\ngini = 0.5\nsamples = 2\nvalue = [1, 1]"] ;
627 -> 628 ;
629 [label="gini = 0.0\nsamples = 1\nvalue = [1, 0]"] ;
628 -> 629 ;
630 [label="gini = 0.0\nsamples = 1\nvalue = [0, 1]"] ;
628 -> 630 ;
631 [label="gini = 0.0\nsamples = 17\nvalue = [17, 0]"] ;
627 -> 631 ;
632 [label="gini = 0.0\nsamples = 1\nvalue = [0, 1]"] ;
620 -> 632 ;
633 [label="gini = 0.0\nsamples = 92\nvalue = [92, 0]"] ;
619 -> 633 ;
634 [label="RevolvingUtilizationOfUnsecuredLines <= 0.1232\ngini = 0.2449\nsamples = 14\nvalue = [12, 2]"] ;
610 -> 634 ;
635 [label="gini = 0.0\nsamples = 2\nvalue = [0, 2]"] ;
634 -> 635 ;
636 [label="gini = 0.0\nsamples = 12\nvalue = [12, 0]"] ;
634 -> 636 ;
637 [label="NumberOfOpenCreditLinesAndLoans <= 15.5\ngini = 0.0329\nsamples = 2211\nvalue = [2174, 37]"] ;
531 -> 637 ;
638 [label="DebtRatio <= 0.0001\ngini = 0.026\nsamples = 1897\nvalue = [1872, 25]"] ;
637 -> 638 ;
639 [label="NumberOfOpenCreditLinesAndLoans <= 10.5\ngini = 0.375\nsamples = 4\nvalue = [3, 1]"] ;
638 -> 639 ;
640 [label="gini = 0.0\nsamples = 2\nvalue = [2, 0]"] ;
639 -> 640 ;
641 [label="MonthlyIncome <= 5298.0\ngini = 0.5\nsamples = 2\nvalue = [1, 1]"] ;
639 -> 641 ;
642 [label="gini = 0.0\nsamples = 1\nvalue = [1, 0]"] ;
641 -> 642 ;
643 [label="gini = 0.0\nsamples = 1\nvalue = [0, 1]"] ;
641 -> 643 ;
644 [label="MonthlyIncome <= 125.5\ngini = 0.025\nsamples = 1893\nvalue = [1869, 24]"] ;
638 -> 644 ;
645 [label="RevolvingUtilizationOfUnsecuredLines <= 0.003\ngini = 0.1049\nsamples = 36\nvalue = [34, 2]"] ;
644 -> 645 ;
646 [label="DebtRatio <= 1832.5\ngini = 0.5\nsamples = 2\nvalue = [1, 1]"] ;
645 -> 646 ;
647 [label="gini = 0.0\nsamples = 1\nvalue = [0, 1]"] ;
646 -> 647 ;
648 [label="gini = 0.0\nsamples = 1\nvalue = [1, 0]"] ;
646 -> 648 ;
649 [label="DebtRatio <= 119.25\ngini = 0.0571\nsamples = 34\nvalue = [33, 1]"] ;
645 -> 649 ;
650 [label="age <= 39.0\ngini = 0.4444\nsamples = 3\nvalue = [2, 1]"] ;
649 -> 650 ;
651 [label="gini = 0.0\nsamples = 1\nvalue = [0, 1]"] ;
650 -> 651 ;
652 [label="gini = 0.0\nsamples = 2\nvalue = [2, 0]"] ;
650 -> 652 ;
653 [label="gini = 0.0\nsamples = 31\nvalue = [31, 0]"] ;
649 -> 653 ;
654 [label="MonthlyIncome <= 6826.5\ngini = 0.0234\nsamples = 1857\nvalue = [1835, 22]"] ;
644 -> 654 ;
655 [label="NumberRealEstateLoansOrLines <= 3.5\ngini = 0.0141\nsamples = 1130\nvalue = [1122, 8]"] ;
654 -> 655 ;
656 [label="RevolvingUtilizationOfUnsecuredLines <= 0.0029\ngini = 0.0108\nsamples = 1109\nvalue = [1103, 6]"] ;
655 -> 656 ;
657 [label="RevolvingUtilizationOfUnsecuredLines <= 0.0029\ngini = 0.0386\nsamples = 203\nvalue = [199, 4]"] ;
656 -> 657 ;
658 [label="NumberOfDependents <= 3.5\ngini = 0.0293\nsamples = 202\nvalue = [199, 3]"] ;
657 -> 658 ;
659 [label="MonthlyIncome <= 3325.0\ngini = 0.0203\nsamples = 195\nvalue = [193, 2]"] ;
658 -> 659 ;
660 [label="MonthlyIncome <= 3308.5\ngini = 0.0928\nsamples = 41\nvalue = [39, 2]"] ;
659 -> 660 ;
661 [label="MonthlyIncome <= 2770.5\ngini = 0.0487\nsamples = 40\nvalue = [39, 1]"] ;
660 -> 661 ;
662 [label="gini = 0.0\nsamples = 29\nvalue = [29, 0]"] ;
661 -> 662 ;
663 [label="MonthlyIncome <= 2803.0\ngini = 0.1653\nsamples = 11\nvalue = [10, 1]"] ;
661 -> 663 ;
664 [label="NumberOfDependents <= 0.5\ngini = 0.5\nsamples = 2\nvalue = [1, 1]"] ;
663 -> 664 ;
665 [label="gini = 0.0\nsamples = 1\nvalue = [1, 0]"] ;
664 -> 665 ;
666 [label="gini = 0.0\nsamples = 1\nvalue = [0, 1]"] ;
664 -> 666 ;
667 [label="gini = 0.0\nsamples = 9\nvalue = [9, 0]"] ;
663 -> 667 ;
668 [label="gini = 0.0\nsamples = 1\nvalue = [0, 1]"] ;
660 -> 668 ;
669 [label="gini = 0.0\nsamples = 154\nvalue = [154, 0]"] ;
659 -> 669 ;
670 [label="DebtRatio <= 1.1\ngini = 0.2449\nsamples = 7\nvalue = [6, 1]"] ;
658 -> 670 ;
671 [label="gini = 0.0\nsamples = 6\nvalue = [6, 0]"] ;
670 -> 671 ;
672 [label="gini = 0.0\nsamples = 1\nvalue = [0, 1]"] ;
670 -> 672 ;
673 [label="gini = 0.0\nsamples = 1\nvalue = [0, 1]"] ;
657 -> 673 ;
674 [label="DebtRatio <= 0.0383\ngini = 0.0044\nsamples = 906\nvalue = [904, 2]"] ;
656 -> 674 ;
675 [label="DebtRatio <= 0.0357\ngini = 0.0689\nsamples = 28\nvalue = [27, 1]"] ;
674 -> 675 ;
676 [label="gini = 0.0\nsamples = 27\nvalue = [27, 0]"] ;
675 -> 676 ;
677 [label="gini = 0.0\nsamples = 1\nvalue = [0, 1]"] ;
675 -> 677 ;
678 [label="MonthlyIncome <= 6388.0\ngini = 0.0023\nsamples = 878\nvalue = [877, 1]"] ;
674 -> 678 ;
679 [label="gini = 0.0\nsamples = 811\nvalue = [811, 0]"] ;
678 -> 679 ;
680 [label="MonthlyIncome <= 6404.0\ngini = 0.0294\nsamples = 67\nvalue = [66, 1]"] ;
678 -> 680 ;
681 [label="age <= 40.5\ngini = 0.2449\nsamples = 7\nvalue = [6, 1]"] ;
680 -> 681 ;
682 [label="gini = 0.0\nsamples = 5\nvalue = [5, 0]"] ;
681 -> 682 ;
683 [label="NumberRealEstateLoansOrLines <= 1.5\ngini = 0.5\nsamples = 2\nvalue = [1, 1]"] ;
681 -> 683 ;
684 [label="gini = 0.0\nsamples = 1\nvalue = [0, 1]"] ;
683 -> 684 ;
685 [label="gini = 0.0\nsamples = 1\nvalue = [1, 0]"] ;
683 -> 685 ;
686 [label="gini = 0.0\nsamples = 60\nvalue = [60, 0]"] ;
680 -> 686 ;
687 [label="DebtRatio <= 0.709\ngini = 0.1723\nsamples = 21\nvalue = [19, 2]"] ;
655 -> 687 ;
688 [label="gini = 0.0\nsamples = 2\nvalue = [0, 2]"] ;
687 -> 688 ;
689 [label="gini = 0.0\nsamples = 19\nvalue = [19, 0]"] ;
687 -> 689 ;
690 [label="MonthlyIncome <= 6836.5\ngini = 0.0378\nsamples = 727\nvalue = [713, 14]"] ;
654 -> 690 ;
691 [label="DebtRatio <= 0.2821\ngini = 0.4444\nsamples = 3\nvalue = [2, 1]"] ;
690 -> 691 ;
692 [label="gini = 0.0\nsamples = 1\nvalue = [0, 1]"] ;
691 -> 692 ;
693 [label="gini = 0.0\nsamples = 2\nvalue = [2, 0]"] ;
691 -> 693 ;
694 [label="DebtRatio <= 0.625\ngini = 0.0353\nsamples = 724\nvalue = [711, 13]"] ;
690 -> 694 ;
695 [label="age <= 35.5\ngini = 0.0288\nsamples = 685\nvalue = [675, 10]"] ;
694 -> 695 ;
696 [label="RevolvingUtilizationOfUnsecuredLines <= 0.0625\ngini = 0.1356\nsamples = 41\nvalue = [38, 3]"] ;
695 -> 696 ;
697 [label="gini = 0.0\nsamples = 24\nvalue = [24, 0]"] ;
696 -> 697 ;
698 [label="RevolvingUtilizationOfUnsecuredLines <= 0.0651\ngini = 0.2907\nsamples = 17\nvalue = [14, 3]"] ;
696 -> 698 ;
699 [label="gini = 0.0\nsamples = 2\nvalue = [0, 2]"] ;
698 -> 699 ;
700 [label="MonthlyIncome <= 11500.0\ngini = 0.1244\nsamples = 15\nvalue = [14, 1]"] ;
698 -> 700 ;
701 [label="gini = 0.0\nsamples = 12\nvalue = [12, 0]"] ;
700 -> 701 ;
702 [label="MonthlyIncome <= 12829.0\ngini = 0.4444\nsamples = 3\nvalue = [2, 1]"] ;
700 -> 702 ;
703 [label="gini = 0.0\nsamples = 1\nvalue = [0, 1]"] ;
702 -> 703 ;
704 [label="gini = 0.0\nsamples = 2\nvalue = [2, 0]"] ;
702 -> 704 ;
705 [label="DebtRatio <= 0.0047\ngini = 0.0215\nsamples = 644\nvalue = [637, 7]"] ;
695 -> 705 ;
706 [label="DebtRatio <= 0.004\ngini = 0.2778\nsamples = 6\nvalue = [5, 1]"] ;
705 -> 706 ;
707 [label="gini = 0.0\nsamples = 5\nvalue = [5, 0]"] ;
706 -> 707 ;
708 [label="gini = 0.0\nsamples = 1\nvalue = [0, 1]"] ;
706 -> 708 ;
709 [label="RevolvingUtilizationOfUnsecuredLines <= 0.0911\ngini = 0.0186\nsamples = 638\nvalue = [632, 6]"] ;
705 -> 709 ;
710 [label="MonthlyIncome <= 24500.0\ngini = 0.0111\nsamples = 539\nvalue = [536, 3]"] ;
709 -> 710 ;
711 [label="age <= 41.5\ngini = 0.0077\nsamples = 517\nvalue = [515, 2]"] ;
710 -> 711 ;
712 [label="gini = 0.0\nsamples = 359\nvalue = [359, 0]"] ;
711 -> 712 ;
713 [label="RevolvingUtilizationOfUnsecuredLines <= 0.013\ngini = 0.025\nsamples = 158\nvalue = [156, 2]"] ;
711 -> 713 ;
714 [label="RevolvingUtilizationOfUnsecuredLines <= 0.0122\ngini = 0.0832\nsamples = 46\nvalue = [44, 2]"] ;
713 -> 714 ;
715 [label="DebtRatio <= 0.2012\ngini = 0.0435\nsamples = 45\nvalue = [44, 1]"] ;
714 -> 715 ;
716 [label="DebtRatio <= 0.1945\ngini = 0.18\nsamples = 10\nvalue = [9, 1]"] ;
715 -> 716 ;
717 [label="gini = 0.0\nsamples = 9\nvalue = [9, 0]"] ;
716 -> 717 ;
718 [label="gini = 0.0\nsamples = 1\nvalue = [0, 1]"] ;
716 -> 718 ;
719 [label="gini = 0.0\nsamples = 35\nvalue = [35, 0]"] ;
715 -> 719 ;
720 [label="gini = 0.0\nsamples = 1\nvalue = [0, 1]"] ;
714 -> 720 ;
721 [label="gini = 0.0\nsamples = 112\nvalue = [112, 0]"] ;
713 -> 721 ;
722 [label="DebtRatio <= 0.3891\ngini = 0.0868\nsamples = 22\nvalue = [21, 1]"] ;
710 -> 722 ;
723 [label="gini = 0.0\nsamples = 21\nvalue = [21, 0]"] ;
722 -> 723 ;
724 [label="gini = 0.0\nsamples = 1\nvalue = [0, 1]"] ;
722 -> 724 ;
725 [label="RevolvingUtilizationOfUnsecuredLines <= 0.0912\ngini = 0.0588\nsamples = 99\nvalue = [96, 3]"] ;
709 -> 725 ;
726 [label="gini = 0.0\nsamples = 1\nvalue = [0, 1]"] ;
725 -> 726 ;
727 [label="DebtRatio <= 0.4947\ngini = 0.04\nsamples = 98\nvalue = [96, 2]"] ;
725 -> 727 ;
728 [label="MonthlyIncome <= 7350.0\ngini = 0.022\nsamples = 90\nvalue = [89, 1]"] ;
727 -> 728 ;
729 [label="DebtRatio <= 0.1856\ngini = 0.1975\nsamples = 9\nvalue = [8, 1]"] ;
728 -> 729 ;
730 [label="gini = 0.0\nsamples = 1\nvalue = [0, 1]"] ;
729 -> 730 ;
731 [label="gini = 0.0\nsamples = 8\nvalue = [8, 0]"] ;
729 -> 731 ;
732 [label="gini = 0.0\nsamples = 81\nvalue = [81, 0]"] ;
728 -> 732 ;
733 [label="MonthlyIncome <= 9208.0\ngini = 0.2188\nsamples = 8\nvalue = [7, 1]"] ;
727 -> 733 ;
734 [label="gini = 0.0\nsamples = 7\nvalue = [7, 0]"] ;
733 -> 734 ;
735 [label="gini = 0.0\nsamples = 1\nvalue = [0, 1]"] ;
733 -> 735 ;
736 [label="DebtRatio <= 0.6366\ngini = 0.142\nsamples = 39\nvalue = [36, 3]"] ;
694 -> 736 ;
737 [label="gini = 0.0\nsamples = 1\nvalue = [0, 1]"] ;
736 -> 737 ;
738 [label="DebtRatio <= 0.663\ngini = 0.0997\nsamples = 38\nvalue = [36, 2]"] ;
736 -> 738 ;
739 [label="age <= 37.0\ngini = 0.32\nsamples = 5\nvalue = [4, 1]"] ;
738 -> 739 ;
740 [label="gini = 0.0\nsamples = 1\nvalue = [0, 1]"] ;
739 -> 740 ;
741 [label="gini = 0.0\nsamples = 4\nvalue = [4, 0]"] ;
739 -> 741 ;
742 [label="MonthlyIncome <= 7124.5\ngini = 0.0588\nsamples = 33\nvalue = [32, 1]"] ;
738 -> 742 ;
743 [label="NumberOfOpenCreditLinesAndLoans <= 9.5\ngini = 0.2188\nsamples = 8\nvalue = [7, 1]"] ;
742 -> 743 ;
744 [label="age <= 39.0\ngini = 0.5\nsamples = 2\nvalue = [1, 1]"] ;
743 -> 744 ;
745 [label="gini = 0.0\nsamples = 1\nvalue = [1, 0]"] ;
744 -> 745 ;
746 [label="gini = 0.0\nsamples = 1\nvalue = [0, 1]"] ;
744 -> 746 ;
747 [label="gini = 0.0\nsamples = 6\nvalue = [6, 0]"] ;
743 -> 747 ;
748 [label="gini = 0.0\nsamples = 25\nvalue = [25, 0]"] ;
742 -> 748 ;
749 [label="RevolvingUtilizationOfUnsecuredLines <= 0.0592\ngini = 0.0735\nsamples = 314\nvalue = [302, 12]"] ;
637 -> 749 ;
750 [label="DebtRatio <= 0.0347\ngini = 0.0495\nsamples = 197\nvalue = [192, 5]"] ;
749 -> 750 ;
751 [label="NumberOfDependents <= 1.5\ngini = 0.2449\nsamples = 7\nvalue = [6, 1]"] ;
750 -> 751 ;
752 [label="gini = 0.0\nsamples = 6\nvalue = [6, 0]"] ;
751 -> 752 ;
753 [label="gini = 0.0\nsamples = 1\nvalue = [0, 1]"] ;
751 -> 753 ;
754 [label="NumberRealEstateLoansOrLines <= 1.5\ngini = 0.0412\nsamples = 190\nvalue = [186, 4]"] ;
750 -> 754 ;
755 [label="gini = 0.0\nsamples = 81\nvalue = [81, 0]"] ;
754 -> 755 ;
756 [label="NumberOfOpenCreditLinesAndLoans <= 19.5\ngini = 0.0707\nsamples = 109\nvalue = [105, 4]"] ;
754 -> 756 ;
757 [label="age <= 40.5\ngini = 0.101\nsamples = 75\nvalue = [71, 4]"] ;
756 -> 757 ;
758 [label="DebtRatio <= 0.3115\ngini = 0.0476\nsamples = 41\nvalue = [40, 1]"] ;
757 -> 758 ;
759 [label="DebtRatio <= 0.3103\ngini = 0.18\nsamples = 10\nvalue = [9, 1]"] ;
758 -> 759 ;
760 [label="gini = 0.0\nsamples = 9\nvalue = [9, 0]"] ;
759 -> 760 ;
761 [label="gini = 0.0\nsamples = 1\nvalue = [0, 1]"] ;
759 -> 761 ;
762 [label="gini = 0.0\nsamples = 31\nvalue = [31, 0]"] ;
758 -> 762 ;
763 [label="DebtRatio <= 0.6697\ngini = 0.1609\nsamples = 34\nvalue = [31, 3]"] ;
757 -> 763 ;
764 [label="MonthlyIncome <= 10133.5\ngini = 0.0832\nsamples = 23\nvalue = [22, 1]"] ;
763 -> 764 ;
765 [label="gini = 0.0\nsamples = 15\nvalue = [15, 0]"] ;
764 -> 765 ;
766 [label="MonthlyIncome <= 10658.5\ngini = 0.2188\nsamples = 8\nvalue = [7, 1]"] ;
764 -> 766 ;
767 [label="gini = 0.0\nsamples = 1\nvalue = [0, 1]"] ;
766 -> 767 ;
768 [label="gini = 0.0\nsamples = 7\nvalue = [7, 0]"] ;
766 -> 768 ;
769 [label="DebtRatio <= 0.7828\ngini = 0.2975\nsamples = 11\nvalue = [9, 2]"] ;
763 -> 769 ;
770 [label="gini = 0.0\nsamples = 1\nvalue = [0, 1]"] ;
769 -> 770 ;
771 [label="NumberOfDependents <= 2.5\ngini = 0.18\nsamples = 10\nvalue = [9, 1]"] ;
769 -> 771 ;
772 [label="gini = 0.0\nsamples = 9\nvalue = [9, 0]"] ;
771 -> 772 ;
773 [label="gini = 0.0\nsamples = 1\nvalue = [0, 1]"] ;
771 -> 773 ;
774 [label="gini = 0.0\nsamples = 34\nvalue = [34, 0]"] ;
756 -> 774 ;
775 [label="RevolvingUtilizationOfUnsecuredLines <= 0.0596\ngini = 0.1125\nsamples = 117\nvalue = [110, 7]"] ;
749 -> 775 ;
776 [label="gini = 0.0\nsamples = 1\nvalue = [0, 1]"] ;
775 -> 776 ;
777 [label="RevolvingUtilizationOfUnsecuredLines <= 0.0891\ngini = 0.0981\nsamples = 116\nvalue = [110, 6]"] ;
775 -> 777 ;
778 [label="RevolvingUtilizationOfUnsecuredLines <= 0.0867\ngini = 0.1833\nsamples = 49\nvalue = [44, 5]"] ;
777 -> 778 ;
779 [label="MonthlyIncome <= 2516.5\ngini = 0.1195\nsamples = 47\nvalue = [44, 3]"] ;
778 -> 779 ;
780 [label="MonthlyIncome <= 1919.5\ngini = 0.5\nsamples = 2\nvalue = [1, 1]"] ;
779 -> 780 ;
781 [label="gini = 0.0\nsamples = 1\nvalue = [1, 0]"] ;
780 -> 781 ;
782 [label="gini = 0.0\nsamples = 1\nvalue = [0, 1]"] ;
780 -> 782 ;
783 [label="MonthlyIncome <= 8216.5\ngini = 0.0849\nsamples = 45\nvalue = [43, 2]"] ;
779 -> 783 ;
784 [label="gini = 0.0\nsamples = 29\nvalue = [29, 0]"] ;
783 -> 784 ;
785 [label="MonthlyIncome <= 9900.0\ngini = 0.2188\nsamples = 16\nvalue = [14, 2]"] ;
783 -> 785 ;
786 [label="RevolvingUtilizationOfUnsecuredLines <= 0.0741\ngini = 0.4444\nsamples = 3\nvalue = [1, 2]"] ;
785 -> 786 ;
787 [label="gini = 0.0\nsamples = 1\nvalue = [1, 0]"] ;
786 -> 787 ;
788 [label="gini = 0.0\nsamples = 2\nvalue = [0, 2]"] ;
786 -> 788 ;
789 [label="gini = 0.0\nsamples = 13\nvalue = [13, 0]"] ;
785 -> 789 ;
790 [label="gini = 0.0\nsamples = 2\nvalue = [0, 2]"] ;
778 -> 790 ;
791 [label="DebtRatio <= 0.7981\ngini = 0.0294\nsamples = 67\nvalue = [66, 1]"] ;
777 -> 791 ;
792 [label="gini = 0.0\nsamples = 54\nvalue = [54, 0]"] ;
791 -> 792 ;
793 [label="MonthlyIncome <= 5950.0\ngini = 0.142\nsamples = 13\nvalue = [12, 1]"] ;
791 -> 793 ;
794 [label="gini = 0.0\nsamples = 12\nvalue = [12, 0]"] ;
793 -> 794 ;
795 [label="gini = 0.0\nsamples = 1\nvalue = [0, 1]"] ;
793 -> 795 ;
796 [label="RevolvingUtilizationOfUnsecuredLines <= 0.1325\ngini = 0.0836\nsamples = 984\nvalue = [941, 43]"] ;
530 -> 796 ;
797 [label="gini = 0.0\nsamples = 1\nvalue = [0, 1]"] ;
796 -> 797 ;
798 [label="NumberOfOpenCreditLinesAndLoans <= 36.5\ngini = 0.0818\nsamples = 983\nvalue = [941, 42]"] ;
796 -> 798 ;
799 [label="DebtRatio <= 0.3377\ngini = 0.0801\nsamples = 981\nvalue = [940, 41]"] ;
798 -> 799 ;
800 [label="NumberOfDependents <= 4.5\ngini = 0.0365\nsamples = 376\nvalue = [369, 7]"] ;
799 -> 800 ;
801 [label="MonthlyIncome <= 2326.5\ngini = 0.0319\nsamples = 370\nvalue = [364, 6]"] ;
800 -> 801 ;
802 [label="MonthlyIncome <= 2246.5\ngini = 0.2449\nsamples = 7\nvalue = [6, 1]"] ;
801 -> 802 ;
803 [label="gini = 0.0\nsamples = 6\nvalue = [6, 0]"] ;
802 -> 803 ;
804 [label="gini = 0.0\nsamples = 1\nvalue = [0, 1]"] ;
802 -> 804 ;
805 [label="age <= 39.5\ngini = 0.0272\nsamples = 363\nvalue = [358, 5]"] ;
801 -> 805 ;
806 [label="RevolvingUtilizationOfUnsecuredLines <= 0.2244\ngini = 0.0085\nsamples = 233\nvalue = [232, 1]"] ;
805 -> 806 ;
807 [label="gini = 0.0\nsamples = 215\nvalue = [215, 0]"] ;
806 -> 807 ;
808 [label="RevolvingUtilizationOfUnsecuredLines <= 0.225\ngini = 0.1049\nsamples = 18\nvalue = [17, 1]"] ;
806 -> 808 ;
809 [label="gini = 0.0\nsamples = 1\nvalue = [0, 1]"] ;
808 -> 809 ;
810 [label="gini = 0.0\nsamples = 17\nvalue = [17, 0]"] ;
808 -> 810 ;
811 [label="RevolvingUtilizationOfUnsecuredLines <= 0.1718\ngini = 0.0596\nsamples = 130\nvalue = [126, 4]"] ;
805 -> 811 ;
812 [label="RevolvingUtilizationOfUnsecuredLines <= 0.1709\ngini = 0.1396\nsamples = 53\nvalue = [49, 4]"] ;
811 -> 812 ;
813 [label="NumberRealEstateLoansOrLines <= 2.5\ngini = 0.1087\nsamples = 52\nvalue = [49, 3]"] ;
812 -> 813 ;
814 [label="NumberOfOpenCreditLinesAndLoans <= 15.5\ngini = 0.0783\nsamples = 49\nvalue = [47, 2]"] ;
813 -> 814 ;
815 [label="gini = 0.0\nsamples = 34\nvalue = [34, 0]"] ;
814 -> 815 ;
816 [label="age <= 40.5\ngini = 0.2311\nsamples = 15\nvalue = [13, 2]"] ;
814 -> 816 ;
817 [label="gini = 0.0\nsamples = 1\nvalue = [0, 1]"] ;
816 -> 817 ;
818 [label="NumberOfOpenCreditLinesAndLoans <= 17.5\ngini = 0.1327\nsamples = 14\nvalue = [13, 1]"] ;
816 -> 818 ;
819 [label="DebtRatio <= 0.2708\ngini = 0.375\nsamples = 4\nvalue = [3, 1]"] ;
818 -> 819 ;
820 [label="gini = 0.0\nsamples = 1\nvalue = [0, 1]"] ;
819 -> 820 ;
821 [label="gini = 0.0\nsamples = 3\nvalue = [3, 0]"] ;
819 -> 821 ;
822 [label="gini = 0.0\nsamples = 10\nvalue = [10, 0]"] ;
818 -> 822 ;
823 [label="DebtRatio <= 0.2828\ngini = 0.4444\nsamples = 3\nvalue = [2, 1]"] ;
813 -> 823 ;
824 [label="gini = 0.0\nsamples = 1\nvalue = [0, 1]"] ;
823 -> 824 ;
825 [label="gini = 0.0\nsamples = 2\nvalue = [2, 0]"] ;
823 -> 825 ;
826 [label="gini = 0.0\nsamples = 1\nvalue = [0, 1]"] ;
812 -> 826 ;
827 [label="gini = 0.0\nsamples = 77\nvalue = [77, 0]"] ;
811 -> 827 ;
828 [label="DebtRatio <= 0.3242\ngini = 0.2778\nsamples = 6\nvalue = [5, 1]"] ;
800 -> 828 ;
829 [label="gini = 0.0\nsamples = 5\nvalue = [5, 0]"] ;
828 -> 829 ;
830 [label="gini = 0.0\nsamples = 1\nvalue = [0, 1]"] ;
828 -> 830 ;
831 [label="DebtRatio <= 0.3383\ngini = 0.1061\nsamples = 605\nvalue = [571, 34]"] ;
799 -> 831 ;
832 [label="gini = 0.0\nsamples = 1\nvalue = [0, 1]"] ;
831 -> 832 ;
833 [label="DebtRatio <= 1.6416\ngini = 0.1033\nsamples = 604\nvalue = [571, 33]"] ;
831 -> 833 ;
834 [label="DebtRatio <= 1.4716\ngini = 0.1204\nsamples = 482\nvalue = [451, 31]"] ;
833 -> 834 ;
835 [label="DebtRatio <= 0.9828\ngini = 0.1135\nsamples = 480\nvalue = [451, 29]"] ;
834 -> 835 ;
836 [label="DebtRatio <= 0.3758\ngini = 0.1043\nsamples = 453\nvalue = [428, 25]"] ;
835 -> 836 ;
837 [label="RevolvingUtilizationOfUnsecuredLines <= 0.139\ngini = 0.1948\nsamples = 64\nvalue = [57, 7]"] ;
836 -> 837 ;
838 [label="NumberOfOpenCreditLinesAndLoans <= 12.0\ngini = 0.48\nsamples = 5\nvalue = [2, 3]"] ;
837 -> 838 ;
839 [label="gini = 0.0\nsamples = 3\nvalue = [0, 3]"] ;
838 -> 839 ;
840 [label="gini = 0.0\nsamples = 2\nvalue = [2, 0]"] ;
838 -> 840 ;
841 [label="MonthlyIncome <= 1956.5\ngini = 0.1264\nsamples = 59\nvalue = [55, 4]"] ;
837 -> 841 ;
842 [label="gini = 0.0\nsamples = 1\nvalue = [0, 1]"] ;
841 -> 842 ;
843 [label="RevolvingUtilizationOfUnsecuredLines <= 0.223\ngini = 0.0981\nsamples = 58\nvalue = [55, 3]"] ;
841 -> 843 ;
844 [label="RevolvingUtilizationOfUnsecuredLines <= 0.1472\ngini = 0.037\nsamples = 53\nvalue = [52, 1]"] ;
843 -> 844 ;
845 [label="RevolvingUtilizationOfUnsecuredLines <= 0.1457\ngini = 0.2188\nsamples = 8\nvalue = [7, 1]"] ;
844 -> 845 ;
846 [label="gini = 0.0\nsamples = 7\nvalue = [7, 0]"] ;
845 -> 846 ;
847 [label="gini = 0.0\nsamples = 1\nvalue = [0, 1]"] ;
845 -> 847 ;
848 [label="gini = 0.0\nsamples = 45\nvalue = [45, 0]"] ;
844 -> 848 ;
849 [label="DebtRatio <= 0.3626\ngini = 0.48\nsamples = 5\nvalue = [3, 2]"] ;
843 -> 849 ;
850 [label="gini = 0.0\nsamples = 3\nvalue = [3, 0]"] ;
849 -> 850 ;
851 [label="gini = 0.0\nsamples = 2\nvalue = [0, 2]"] ;
849 -> 851 ;
852 [label="RevolvingUtilizationOfUnsecuredLines <= 0.1559\ngini = 0.0883\nsamples = 389\nvalue = [371, 18]"] ;
836 -> 852 ;
853 [label="NumberOfOpenCreditLinesAndLoans <= 9.5\ngini = 0.0177\nsamples = 112\nvalue = [111, 1]"] ;
852 -> 853 ;
854 [label="NumberRealEstateLoansOrLines <= 2.5\ngini = 0.142\nsamples = 13\nvalue = [12, 1]"] ;
853 -> 854 ;
855 [label="gini = 0.0\nsamples = 12\nvalue = [12, 0]"] ;
854 -> 855 ;
856 [label="gini = 0.0\nsamples = 1\nvalue = [0, 1]"] ;
854 -> 856 ;
857 [label="gini = 0.0\nsamples = 99\nvalue = [99, 0]"] ;
853 -> 857 ;
858 [label="RevolvingUtilizationOfUnsecuredLines <= 0.1561\ngini = 0.1152\nsamples = 277\nvalue = [260, 17]"] ;
852 -> 858 ;
859 [label="gini = 0.0\nsamples = 1\nvalue = [0, 1]"] ;
858 -> 859 ;
860 [label="RevolvingUtilizationOfUnsecuredLines <= 0.1706\ngini = 0.1092\nsamples = 276\nvalue = [260, 16]"] ;
858 -> 860 ;
861 [label="RevolvingUtilizationOfUnsecuredLines <= 0.17\ngini = 0.2188\nsamples = 64\nvalue = [56, 8]"] ;
860 -> 861 ;
862 [label="age <= 42.5\ngini = 0.1774\nsamples = 61\nvalue = [55, 6]"] ;
861 -> 862 ;
863 [label="NumberRealEstateLoansOrLines <= 2.5\ngini = 0.1049\nsamples = 54\nvalue = [51, 3]"] ;
862 -> 863 ;
864 [label="NumberOfOpenCreditLinesAndLoans <= 9.5\ngini = 0.0408\nsamples = 48\nvalue = [47, 1]"] ;
863 -> 864 ;
865 [label="RevolvingUtilizationOfUnsecuredLines <= 0.1653\ngini = 0.18\nsamples = 10\nvalue = [9, 1]"] ;
864 -> 865 ;
866 [label="gini = 0.0\nsamples = 8\nvalue = [8, 0]"] ;
865 -> 866 ;
867 [label="NumberOfDependents <= 1.5\ngini = 0.5\nsamples = 2\nvalue = [1, 1]"] ;
865 -> 867 ;
868 [label="gini = 0.0\nsamples = 1\nvalue = [1, 0]"] ;
867 -> 868 ;
869 [label="gini = 0.0\nsamples = 1\nvalue = [0, 1]"] ;
867 -> 869 ;
870 [label="gini = 0.0\nsamples = 38\nvalue = [38, 0]"] ;
864 -> 870 ;
871 [label="MonthlyIncome <= 7958.5\ngini = 0.4444\nsamples = 6\nvalue = [4, 2]"] ;
863 -> 871 ;
872 [label="gini = 0.0\nsamples = 3\nvalue = [3, 0]"] ;
871 -> 872 ;
873 [label="NumberOfDependents <= 0.5\ngini = 0.4444\nsamples = 3\nvalue = [1, 2]"] ;
871 -> 873 ;
874 [label="gini = 0.0\nsamples = 1\nvalue = [1, 0]"] ;
873 -> 874 ;
875 [label="gini = 0.0\nsamples = 2\nvalue = [0, 2]"] ;
873 -> 875 ;
876 [label="NumberOfOpenCreditLinesAndLoans <= 13.5\ngini = 0.4898\nsamples = 7\nvalue = [4, 3]"] ;
862 -> 876 ;
877 [label="gini = 0.0\nsamples = 3\nvalue = [3, 0]"] ;
876 -> 877 ;
878 [label="DebtRatio <= 0.4155\ngini = 0.375\nsamples = 4\nvalue = [1, 3]"] ;
876 -> 878 ;
879 [label="gini = 0.0\nsamples = 1\nvalue = [1, 0]"] ;
878 -> 879 ;
880 [label="gini = 0.0\nsamples = 3\nvalue = [0, 3]"] ;
878 -> 880 ;
881 [label="MonthlyIncome <= 4900.0\ngini = 0.4444\nsamples = 3\nvalue = [1, 2]"] ;
861 -> 881 ;
882 [label="gini = 0.0\nsamples = 2\nvalue = [0, 2]"] ;
881 -> 882 ;
883 [label="gini = 0.0\nsamples = 1\nvalue = [1, 0]"] ;
881 -> 883 ;
884 [label="RevolvingUtilizationOfUnsecuredLines <= 0.1858\ngini = 0.0726\nsamples = 212\nvalue = [204, 8]"] ;
860 -> 884 ;
885 [label="gini = 0.0\nsamples = 67\nvalue = [67, 0]"] ;
884 -> 885 ;
886 [label="RevolvingUtilizationOfUnsecuredLines <= 0.186\ngini = 0.1043\nsamples = 145\nvalue = [137, 8]"] ;
884 -> 886 ;
887 [label="gini = 0.0\nsamples = 1\nvalue = [0, 1]"] ;
886 -> 887 ;
888 [label="MonthlyIncome <= 6504.0\ngini = 0.0925\nsamples = 144\nvalue = [137, 7]"] ;
886 -> 888 ;
889 [label="DebtRatio <= 0.9281\ngini = 0.0388\nsamples = 101\nvalue = [99, 2]"] ;
888 -> 889 ;
890 [label="RevolvingUtilizationOfUnsecuredLines <= 0.2309\ngini = 0.0204\nsamples = 97\nvalue = [96, 1]"] ;
889 -> 890 ;
891 [label="gini = 0.0\nsamples = 92\nvalue = [92, 0]"] ;
890 -> 891 ;
892 [label="DebtRatio <= 0.6017\ngini = 0.32\nsamples = 5\nvalue = [4, 1]"] ;
890 -> 892 ;
893 [label="gini = 0.0\nsamples = 4\nvalue = [4, 0]"] ;
892 -> 893 ;
894 [label="gini = 0.0\nsamples = 1\nvalue = [0, 1]"] ;
892 -> 894 ;
895 [label="DebtRatio <= 0.9437\ngini = 0.375\nsamples = 4\nvalue = [3, 1]"] ;
889 -> 895 ;
896 [label="gini = 0.0\nsamples = 1\nvalue = [0, 1]"] ;
895 -> 896 ;
897 [label="gini = 0.0\nsamples = 3\nvalue = [3, 0]"] ;
895 -> 897 ;
898 [label="MonthlyIncome <= 6539.5\ngini = 0.2055\nsamples = 43\nvalue = [38, 5]"] ;
888 -> 898 ;
899 [label="gini = 0.0\nsamples = 1\nvalue = [0, 1]"] ;
898 -> 899 ;
900 [label="age <= 38.5\ngini = 0.1723\nsamples = 42\nvalue = [38, 4]"] ;
898 -> 900 ;
901 [label="MonthlyIncome <= 6720.5\ngini = 0.32\nsamples = 20\nvalue = [16, 4]"] ;
900 -> 901 ;
902 [label="gini = 0.0\nsamples = 1\nvalue = [0, 1]"] ;
901 -> 902 ;
903 [label="NumberOfOpenCreditLinesAndLoans <= 9.5\ngini = 0.2659\nsamples = 19\nvalue = [16, 3]"] ;
901 -> 903 ;
904 [label="gini = 0.0\nsamples = 8\nvalue = [8, 0]"] ;
903 -> 904 ;
905 [label="age <= 35.0\ngini = 0.3967\nsamples = 11\nvalue = [8, 3]"] ;
903 -> 905 ;
906 [label="gini = 0.0\nsamples = 2\nvalue = [0, 2]"] ;
905 -> 906 ;
907 [label="MonthlyIncome <= 7714.0\ngini = 0.1975\nsamples = 9\nvalue = [8, 1]"] ;
905 -> 907 ;
908 [label="DebtRatio <= 0.5186\ngini = 0.5\nsamples = 2\nvalue = [1, 1]"] ;
907 -> 908 ;
909 [label="gini = 0.0\nsamples = 1\nvalue = [0, 1]"] ;
908 -> 909 ;
910 [label="gini = 0.0\nsamples = 1\nvalue = [1, 0]"] ;
908 -> 910 ;
911 [label="gini = 0.0\nsamples = 7\nvalue = [7, 0]"] ;
907 -> 911 ;
912 [label="gini = 0.0\nsamples = 22\nvalue = [22, 0]"] ;
900 -> 912 ;
913 [label="DebtRatio <= 0.9961\ngini = 0.2524\nsamples = 27\nvalue = [23, 4]"] ;
835 -> 913 ;
914 [label="gini = 0.0\nsamples = 1\nvalue = [0, 1]"] ;
913 -> 914 ;
915 [label="MonthlyIncome <= 3820.5\ngini = 0.2041\nsamples = 26\nvalue = [23, 3]"] ;
913 -> 915 ;
916 [label="gini = 0.0\nsamples = 14\nvalue = [14, 0]"] ;
915 -> 916 ;
917 [label="age <= 42.5\ngini = 0.375\nsamples = 12\nvalue = [9, 3]"] ;
915 -> 917 ;
918 [label="MonthlyIncome <= 3996.5\ngini = 0.2975\nsamples = 11\nvalue = [9, 2]"] ;
917 -> 918 ;
919 [label="gini = 0.0\nsamples = 1\nvalue = [0, 1]"] ;
918 -> 919 ;
920 [label="RevolvingUtilizationOfUnsecuredLines <= 0.2211\ngini = 0.18\nsamples = 10\nvalue = [9, 1]"] ;
918 -> 920 ;
921 [label="gini = 0.0\nsamples = 8\nvalue = [8, 0]"] ;
920 -> 921 ;
922 [label="MonthlyIncome <= 4666.5\ngini = 0.5\nsamples = 2\nvalue = [1, 1]"] ;
920 -> 922 ;
923 [label="gini = 0.0\nsamples = 1\nvalue = [1, 0]"] ;
922 -> 923 ;
924 [label="gini = 0.0\nsamples = 1\nvalue = [0, 1]"] ;
922 -> 924 ;
925 [label="gini = 0.0\nsamples = 1\nvalue = [0, 1]"] ;
917 -> 925 ;
926 [label="gini = 0.0\nsamples = 2\nvalue = [0, 2]"] ;
834 -> 926 ;
927 [label="RevolvingUtilizationOfUnsecuredLines <= 0.2056\ngini = 0.0322\nsamples = 122\nvalue = [120, 2]"] ;
833 -> 927 ;
928 [label="gini = 0.0\nsamples = 95\nvalue = [95, 0]"] ;
927 -> 928 ;
929 [label="RevolvingUtilizationOfUnsecuredLines <= 0.2059\ngini = 0.1372\nsamples = 27\nvalue = [25, 2]"] ;
927 -> 929 ;
930 [label="gini = 0.0\nsamples = 1\nvalue = [0, 1]"] ;
929 -> 930 ;
931 [label="DebtRatio <= 3940.0\ngini = 0.074\nsamples = 26\nvalue = [25, 1]"] ;
929 -> 931 ;
932 [label="gini = 0.0\nsamples = 24\nvalue = [24, 0]"] ;
931 -> 932 ;
933 [label="DebtRatio <= 4210.5\ngini = 0.5\nsamples = 2\nvalue = [1, 1]"] ;
931 -> 933 ;
934 [label="gini = 0.0\nsamples = 1\nvalue = [0, 1]"] ;
933 -> 934 ;
935 [label="gini = 0.0\nsamples = 1\nvalue = [1, 0]"] ;
933 -> 935 ;
936 [label="DebtRatio <= 2311.7937\ngini = 0.5\nsamples = 2\nvalue = [1, 1]"] ;
798 -> 936 ;
937 [label="gini = 0.0\nsamples = 1\nvalue = [0, 1]"] ;
936 -> 937 ;
938 [label="gini = 0.0\nsamples = 1\nvalue = [1, 0]"] ;
936 -> 938 ;
939 [label="gini = 0.0\nsamples = 2\nvalue = [0, 2]"] ;
7 -> 939 ;
940 [label="NumberOfOpenCreditLinesAndLoans <= 8.5\ngini = 0.0178\nsamples = 44140\nvalue = [43743, 397]"] ;
6 -> 940 ;
941 [label="NumberRealEstateLoansOrLines <= 3.5\ngini = 0.013\nsamples = 24671\nvalue = [24509, 162]"] ;
940 -> 941 ;
942 [label="age <= 60.5\ngini = 0.0128\nsamples = 24576\nvalue = [24418, 158]"] ;
941 -> 942 ;
943 [label="MonthlyIncome <= 3302.0\ngini = 0.0172\nsamples = 11204\nvalue = [11107, 97]"] ;
942 -> 943 ;
944 [label="MonthlyIncome <= 3021.0\ngini = 0.0306\nsamples = 1543\nvalue = [1519, 24]"] ;
943 -> 944 ;
945 [label="RevolvingUtilizationOfUnsecuredLines <= 0.2303\ngini = 0.0224\nsamples = 1327\nvalue = [1312, 15]"] ;
944 -> 945 ;
946 [label="NumberRealEstateLoansOrLines <= 2.5\ngini = 0.021\nsamples = 1322\nvalue = [1308, 14]"] ;
945 -> 946 ;
947 [label="NumberOfOpenCreditLinesAndLoans <= 5.5\ngini = 0.0196\nsamples = 1312\nvalue = [1299, 13]"] ;
946 -> 947 ;
948 [label="NumberRealEstateLoansOrLines <= 1.5\ngini = 0.0285\nsamples = 692\nvalue = [682, 10]"] ;
947 -> 948 ;
949 [label="MonthlyIncome <= 979.0\ngini = 0.0242\nsamples = 653\nvalue = [645, 8]"] ;
948 -> 949 ;
950 [label="MonthlyIncome <= 954.0\ngini = 0.0701\nsamples = 110\nvalue = [106, 4]"] ;
949 -> 950 ;
951 [label="DebtRatio <= 0.2767\ngini = 0.0535\nsamples = 109\nvalue = [106, 3]"] ;
950 -> 951 ;
952 [label="DebtRatio <= 0.2672\ngini = 0.1653\nsamples = 22\nvalue = [20, 2]"] ;
951 -> 952 ;
953 [label="NumberOfOpenCreditLinesAndLoans <= 4.5\ngini = 0.0907\nsamples = 21\nvalue = [20, 1]"] ;
952 -> 953 ;
954 [label="gini = 0.0\nsamples = 13\nvalue = [13, 0]"] ;
953 -> 954 ;
955 [label="NumberOfDependents <= 0.5\ngini = 0.2188\nsamples = 8\nvalue = [7, 1]"] ;
953 -> 955 ;
956 [label="gini = 0.0\nsamples = 6\nvalue = [6, 0]"] ;
955 -> 956 ;
957 [label="DebtRatio <= 0.1015\ngini = 0.5\nsamples = 2\nvalue = [1, 1]"] ;
955 -> 957 ;
958 [label="gini = 0.0\nsamples = 1\nvalue = [0, 1]"] ;
957 -> 958 ;
959 [label="gini = 0.0\nsamples = 1\nvalue = [1, 0]"] ;
957 -> 959 ;
960 [label="gini = 0.0\nsamples = 1\nvalue = [0, 1]"] ;
952 -> 960 ;
961 [label="NumberOfOpenCreditLinesAndLoans <= 2.5\ngini = 0.0227\nsamples = 87\nvalue = [86, 1]"] ;
951 -> 961 ;
962 [label="DebtRatio <= 276.0\ngini = 0.1049\nsamples = 18\nvalue = [17, 1]"] ;
961 -> 962 ;
963 [label="gini = 0.0\nsamples = 15\nvalue = [15, 0]"] ;
962 -> 963 ;
964 [label="RevolvingUtilizationOfUnsecuredLines <= 0.0369\ngini = 0.4444\nsamples = 3\nvalue = [2, 1]"] ;
962 -> 964 ;
965 [label="gini = 0.0\nsamples = 2\nvalue = [2, 0]"] ;
964 -> 965 ;
966 [label="gini = 0.0\nsamples = 1\nvalue = [0, 1]"] ;
964 -> 966 ;
967 [label="gini = 0.0\nsamples = 69\nvalue = [69, 0]"] ;
961 -> 967 ;
968 [label="gini = 0.0\nsamples = 1\nvalue = [0, 1]"] ;
950 -> 968 ;
969 [label="DebtRatio <= 1.6048\ngini = 0.0146\nsamples = 543\nvalue = [539, 4]"] ;
949 -> 969 ;
970 [label="NumberOfOpenCreditLinesAndLoans <= 1.5\ngini = 0.011\nsamples = 540\nvalue = [537, 3]"] ;
969 -> 970 ;
971 [label="age <= 59.5\ngini = 0.0997\nsamples = 19\nvalue = [18, 1]"] ;
970 -> 971 ;
972 [label="gini = 0.0\nsamples = 18\nvalue = [18, 0]"] ;
971 -> 972 ;
973 [label="gini = 0.0\nsamples = 1\nvalue = [0, 1]"] ;
971 -> 973 ;
974 [label="age <= 44.5\ngini = 0.0076\nsamples = 521\nvalue = [519, 2]"] ;
970 -> 974 ;
975 [label="RevolvingUtilizationOfUnsecuredLines <= 0.0027\ngini = 0.0416\nsamples = 47\nvalue = [46, 1]"] ;
974 -> 975 ;
976 [label="NumberOfOpenCreditLinesAndLoans <= 4.5\ngini = 0.1975\nsamples = 9\nvalue = [8, 1]"] ;
975 -> 976 ;
977 [label="gini = 0.0\nsamples = 7\nvalue = [7, 0]"] ;
976 -> 977 ;
978 [label="NumberOfDependents <= 1.5\ngini = 0.5\nsamples = 2\nvalue = [1, 1]"] ;
976 -> 978 ;
979 [label="gini = 0.0\nsamples = 1\nvalue = [0, 1]"] ;
978 -> 979 ;
980 [label="gini = 0.0\nsamples = 1\nvalue = [1, 0]"] ;
978 -> 980 ;
981 [label="gini = 0.0\nsamples = 38\nvalue = [38, 0]"] ;
975 -> 981 ;
982 [label="age <= 57.5\ngini = 0.0042\nsamples = 474\nvalue = [473, 1]"] ;
974 -> 982 ;
983 [label="gini = 0.0\nsamples = 385\nvalue = [385, 0]"] ;
982 -> 983 ;
984 [label="age <= 58.5\ngini = 0.0222\nsamples = 89\nvalue = [88, 1]"] ;
982 -> 984 ;
985 [label="RevolvingUtilizationOfUnsecuredLines <= 0.0466\ngini = 0.0768\nsamples = 25\nvalue = [24, 1]"] ;
984 -> 985 ;
986 [label="gini = 0.0\nsamples = 18\nvalue = [18, 0]"] ;
985 -> 986 ;
987 [label="RevolvingUtilizationOfUnsecuredLines <= 0.0588\ngini = 0.2449\nsamples = 7\nvalue = [6, 1]"] ;
985 -> 987 ;
988 [label="gini = 0.0\nsamples = 1\nvalue = [0, 1]"] ;
987 -> 988 ;
989 [label="gini = 0.0\nsamples = 6\nvalue = [6, 0]"] ;
987 -> 989 ;
990 [label="gini = 0.0\nsamples = 64\nvalue = [64, 0]"] ;
984 -> 990 ;
991 [label="RevolvingUtilizationOfUnsecuredLines <= 0.0626\ngini = 0.4444\nsamples = 3\nvalue = [2, 1]"] ;
969 -> 991 ;
992 [label="gini = 0.0\nsamples = 1\nvalue = [0, 1]"] ;
991 -> 992 ;
993 [label="gini = 0.0\nsamples = 2\nvalue = [2, 0]"] ;
991 -> 993 ;
994 [label="DebtRatio <= 0.3881\ngini = 0.0973\nsamples = 39\nvalue = [37, 2]"] ;
948 -> 994 ;
995 [label="RevolvingUtilizationOfUnsecuredLines <= 0.0414\ngini = 0.4444\nsamples = 3\nvalue = [1, 2]"] ;
994 -> 995 ;
996 [label="gini = 0.0\nsamples = 1\nvalue = [1, 0]"] ;
995 -> 996 ;
997 [label="gini = 0.0\nsamples = 2\nvalue = [0, 2]"] ;
995 -> 997 ;
998 [label="gini = 0.0\nsamples = 36\nvalue = [36, 0]"] ;
994 -> 998 ;
999 [label="RevolvingUtilizationOfUnsecuredLines <= 0.1718\ngini = 0.0096\nsamples = 620\nvalue = [617, 3]"] ;
947 -> 999 ;
1000 [label="RevolvingUtilizationOfUnsecuredLines <= 0.0\ngini = 0.0036\nsamples = 558\nvalue = [557, 1]"] ;
999 -> 1000 ;
1001 [label="DebtRatio <= 0.2506\ngini = 0.0204\nsamples = 97\nvalue = [96, 1]"] ;
1000 -> 1001 ;
1002 [label="DebtRatio <= 0.2494\ngini = 0.0868\nsamples = 22\nvalue = [21, 1]"] ;
1001 -> 1002 ;
1003 [label="gini = 0.0\nsamples = 21\nvalue = [21, 0]"] ;
1002 -> 1003 ;
1004 [label="gini = 0.0\nsamples = 1\nvalue = [0, 1]"] ;
1002 -> 1004 ;
1005 [label="gini = 0.0\nsamples = 75\nvalue = [75, 0]"] ;
1001 -> 1005 ;
1006 [label="gini = 0.0\nsamples = 461\nvalue = [461, 0]"] ;
1000 -> 1006 ;
1007 [label="RevolvingUtilizationOfUnsecuredLines <= 0.1741\ngini = 0.0624\nsamples = 62\nvalue = [60, 2]"] ;
999 -> 1007 ;
1008 [label="gini = 0.0\nsamples = 1\nvalue = [0, 1]"] ;
1007 -> 1008 ;
1009 [label="MonthlyIncome <= 2968.0\ngini = 0.0322\nsamples = 61\nvalue = [60, 1]"] ;
1007 -> 1009 ;
1010 [label="gini = 0.0\nsamples = 57\nvalue = [57, 0]"] ;
1009 -> 1010 ;
1011 [label="age <= 58.0\ngini = 0.375\nsamples = 4\nvalue = [3, 1]"] ;
1009 -> 1011 ;
1012 [label="gini = 0.0\nsamples = 3\nvalue = [3, 0]"] ;
1011 -> 1012 ;
1013 [label="gini = 0.0\nsamples = 1\nvalue = [0, 1]"] ;
1011 -> 1013 ;
1014 [label="RevolvingUtilizationOfUnsecuredLines <= 0.1513\ngini = 0.18\nsamples = 10\nvalue = [9, 1]"] ;
946 -> 1014 ;
1015 [label="gini = 0.0\nsamples = 8\nvalue = [8, 0]"] ;
1014 -> 1015 ;
1016 [label="NumberOfOpenCreditLinesAndLoans <= 6.0\ngini = 0.5\nsamples = 2\nvalue = [1, 1]"] ;
1014 -> 1016 ;
1017 [label="gini = 0.0\nsamples = 1\nvalue = [1, 0]"] ;
1016 -> 1017 ;
1018 [label="gini = 0.0\nsamples = 1\nvalue = [0, 1]"] ;
1016 -> 1018 ;
1019 [label="NumberOfDependents <= 2.5\ngini = 0.32\nsamples = 5\nvalue = [4, 1]"] ;
945 -> 1019 ;
1020 [label="gini = 0.0\nsamples = 4\nvalue = [4, 0]"] ;
1019 -> 1020 ;
1021 [label="gini = 0.0\nsamples = 1\nvalue = [0, 1]"] ;
1019 -> 1021 ;
1022 [label="MonthlyIncome <= 3025.0\ngini = 0.0799\nsamples = 216\nvalue = [207, 9]"] ;
944 -> 1022 ;
1023 [label="gini = 0.0\nsamples = 1\nvalue = [0, 1]"] ;
1022 -> 1023 ;
1024 [label="MonthlyIncome <= 3132.5\ngini = 0.0716\nsamples = 215\nvalue = [207, 8]"] ;
1022 -> 1024 ;
1025 [label="MonthlyIncome <= 3131.0\ngini = 0.1327\nsamples = 70\nvalue = [65, 5]"] ;
1024 -> 1025 ;
1026 [label="DebtRatio <= 0.038\ngini = 0.1092\nsamples = 69\nvalue = [65, 4]"] ;
1025 -> 1026 ;
1027 [label="age <= 51.5\ngini = 0.32\nsamples = 15\nvalue = [12, 3]"] ;
1026 -> 1027 ;
1028 [label="gini = 0.0\nsamples = 8\nvalue = [8, 0]"] ;
1027 -> 1028 ;
1029 [label="age <= 59.0\ngini = 0.4898\nsamples = 7\nvalue = [4, 3]"] ;
1027 -> 1029 ;
1030 [label="MonthlyIncome <= 3067.5\ngini = 0.48\nsamples = 5\nvalue = [2, 3]"] ;
1029 -> 1030 ;
1031 [label="age <= 52.5\ngini = 0.4444\nsamples = 3\nvalue = [2, 1]"] ;
1030 -> 1031 ;
1032 [label="gini = 0.0\nsamples = 1\nvalue = [0, 1]"] ;
1031 -> 1032 ;
1033 [label="gini = 0.0\nsamples = 2\nvalue = [2, 0]"] ;
1031 -> 1033 ;
1034 [label="gini = 0.0\nsamples = 2\nvalue = [0, 2]"] ;
1030 -> 1034 ;
1035 [label="gini = 0.0\nsamples = 2\nvalue = [2, 0]"] ;
1029 -> 1035 ;
1036 [label="RevolvingUtilizationOfUnsecuredLines <= 0.1312\ngini = 0.0364\nsamples = 54\nvalue = [53, 1]"] ;
1026 -> 1036 ;
1037 [label="gini = 0.0\nsamples = 42\nvalue = [42, 0]"] ;
1036 -> 1037 ;
1038 [label="RevolvingUtilizationOfUnsecuredLines <= 0.1423\ngini = 0.1528\nsamples = 12\nvalue = [11, 1]"] ;
1036 -> 1038 ;
1039 [label="gini = 0.0\nsamples = 1\nvalue = [0, 1]"] ;
1038 -> 1039 ;
1040 [label="gini = 0.0\nsamples = 11\nvalue = [11, 0]"] ;
1038 -> 1040 ;
1041 [label="gini = 0.0\nsamples = 1\nvalue = [0, 1]"] ;
1025 -> 1041 ;
1042 [label="RevolvingUtilizationOfUnsecuredLines <= 0.1491\ngini = 0.0405\nsamples = 145\nvalue = [142, 3]"] ;
1024 -> 1042 ;
1043 [label="NumberRealEstateLoansOrLines <= 1.5\ngini = 0.0167\nsamples = 119\nvalue = [118, 1]"] ;
1042 -> 1043 ;
1044 [label="gini = 0.0\nsamples = 109\nvalue = [109, 0]"] ;
1043 -> 1044 ;
1045 [label="age <= 49.5\ngini = 0.18\nsamples = 10\nvalue = [9, 1]"] ;
1043 -> 1045 ;
1046 [label="gini = 0.0\nsamples = 8\nvalue = [8, 0]"] ;
1045 -> 1046 ;
1047 [label="RevolvingUtilizationOfUnsecuredLines <= 0.0425\ngini = 0.5\nsamples = 2\nvalue = [1, 1]"] ;
1045 -> 1047 ;
1048 [label="gini = 0.0\nsamples = 1\nvalue = [1, 0]"] ;
1047 -> 1048 ;
1049 [label="gini = 0.0\nsamples = 1\nvalue = [0, 1]"] ;
1047 -> 1049 ;
1050 [label="RevolvingUtilizationOfUnsecuredLines <= 0.1509\ngini = 0.142\nsamples = 26\nvalue = [24, 2]"] ;
1042 -> 1050 ;
1051 [label="gini = 0.0\nsamples = 1\nvalue = [0, 1]"] ;
1050 -> 1051 ;
1052 [label="MonthlyIncome <= 3166.5\ngini = 0.0768\nsamples = 25\nvalue = [24, 1]"] ;
1050 -> 1052 ;
1053 [label="NumberOfOpenCreditLinesAndLoans <= 6.5\ngini = 0.5\nsamples = 2\nvalue = [1, 1]"] ;
1052 -> 1053 ;
1054 [label="gini = 0.0\nsamples = 1\nvalue = [1, 0]"] ;
1053 -> 1054 ;
1055 [label="gini = 0.0\nsamples = 1\nvalue = [0, 1]"] ;
1053 -> 1055 ;
1056 [label="gini = 0.0\nsamples = 23\nvalue = [23, 0]"] ;
1052 -> 1056 ;
1057 [label="RevolvingUtilizationOfUnsecuredLines <= 0.0\ngini = 0.015\nsamples = 9661\nvalue = [9588, 73]"] ;
943 -> 1057 ;
1058 [label="MonthlyIncome <= 5469.5\ngini = 0.0264\nsamples = 1419\nvalue = [1400, 19]"] ;
1057 -> 1058 ;
1059 [label="NumberOfDependents <= 3.5\ngini = 0.0144\nsamples = 830\nvalue = [824, 6]"] ;
1058 -> 1059 ;
1060 [label="DebtRatio <= 3598.0\ngini = 0.0122\nsamples = 818\nvalue = [813, 5]"] ;
1059 -> 1060 ;
1061 [label="age <= 50.5\ngini = 0.01\nsamples = 794\nvalue = [790, 4]"] ;
1060 -> 1061 ;
1062 [label="gini = 0.0\nsamples = 325\nvalue = [325, 0]"] ;
1061 -> 1062 ;
1063 [label="DebtRatio <= 0.2705\ngini = 0.0169\nsamples = 469\nvalue = [465, 4]"] ;
1061 -> 1063 ;
1064 [label="gini = 0.0\nsamples = 173\nvalue = [173, 0]"] ;
1063 -> 1064 ;
1065 [label="DebtRatio <= 0.2721\ngini = 0.0267\nsamples = 296\nvalue = [292, 4]"] ;
1063 -> 1065 ;
1066 [label="gini = 0.0\nsamples = 1\nvalue = [0, 1]"] ;
1065 -> 1066 ;
1067 [label="NumberOfOpenCreditLinesAndLoans <= 3.5\ngini = 0.0201\nsamples = 295\nvalue = [292, 3]"] ;
1065 -> 1067 ;
1068 [label="age <= 51.5\ngini = 0.0655\nsamples = 59\nvalue = [57, 2]"] ;
1067 -> 1068 ;
1069 [label="DebtRatio <= 18.0\ngini = 0.2449\nsamples = 7\nvalue = [6, 1]"] ;
1068 -> 1069 ;
1070 [label="gini = 0.0\nsamples = 1\nvalue = [0, 1]"] ;
1069 -> 1070 ;
1071 [label="gini = 0.0\nsamples = 6\nvalue = [6, 0]"] ;
1069 -> 1071 ;
1072 [label="DebtRatio <= 1204.0\ngini = 0.0377\nsamples = 52\nvalue = [51, 1]"] ;
1068 -> 1072 ;
1073 [label="gini = 0.0\nsamples = 38\nvalue = [38, 0]"] ;
1072 -> 1073 ;
1074 [label="DebtRatio <= 1310.5\ngini = 0.1327\nsamples = 14\nvalue = [13, 1]"] ;
1072 -> 1074 ;
1075 [label="gini = 0.0\nsamples = 1\nvalue = [0, 1]"] ;
1074 -> 1075 ;
1076 [label="gini = 0.0\nsamples = 13\nvalue = [13, 0]"] ;
1074 -> 1076 ;
1077 [label="NumberRealEstateLoansOrLines <= 0.5\ngini = 0.0084\nsamples = 236\nvalue = [235, 1]"] ;
1067 -> 1077 ;
1078 [label="NumberOfOpenCreditLinesAndLoans <= 7.5\ngini = 0.054\nsamples = 36\nvalue = [35, 1]"] ;
1077 -> 1078 ;
1079 [label="gini = 0.0\nsamples = 31\nvalue = [31, 0]"] ;
1078 -> 1079 ;
1080 [label="DebtRatio <= 60.5\ngini = 0.32\nsamples = 5\nvalue = [4, 1]"] ;
1078 -> 1080 ;
1081 [label="gini = 0.0\nsamples = 1\nvalue = [0, 1]"] ;
1080 -> 1081 ;
1082 [label="gini = 0.0\nsamples = 4\nvalue = [4, 0]"] ;
1080 -> 1082 ;
1083 [label="gini = 0.0\nsamples = 200\nvalue = [200, 0]"] ;
1077 -> 1083 ;
1084 [label="DebtRatio <= 3671.0\ngini = 0.0799\nsamples = 24\nvalue = [23, 1]"] ;
1060 -> 1084 ;
1085 [label="gini = 0.0\nsamples = 1\nvalue = [0, 1]"] ;
1084 -> 1085 ;
1086 [label="gini = 0.0\nsamples = 23\nvalue = [23, 0]"] ;
1084 -> 1086 ;
1087 [label="NumberOfOpenCreditLinesAndLoans <= 6.5\ngini = 0.1528\nsamples = 12\nvalue = [11, 1]"] ;
1059 -> 1087 ;
1088 [label="gini = 0.0\nsamples = 9\nvalue = [9, 0]"] ;
1087 -> 1088 ;
1089 [label="DebtRatio <= 0.3066\ngini = 0.4444\nsamples = 3\nvalue = [2, 1]"] ;
1087 -> 1089 ;
1090 [label="gini = 0.0\nsamples = 1\nvalue = [0, 1]"] ;
1089 -> 1090 ;
1091 [label="gini = 0.0\nsamples = 2\nvalue = [2, 0]"] ;
1089 -> 1091 ;
1092 [label="DebtRatio <= 0.9358\ngini = 0.0432\nsamples = 589\nvalue = [576, 13]"] ;
1058 -> 1092 ;
1093 [label="MonthlyIncome <= 5658.0\ngini = 0.0368\nsamples = 587\nvalue = [576, 11]"] ;
1092 -> 1093 ;
1094 [label="MonthlyIncome <= 5633.0\ngini = 0.2076\nsamples = 17\nvalue = [15, 2]"] ;
1093 -> 1094 ;
1095 [label="NumberRealEstateLoansOrLines <= 0.5\ngini = 0.1172\nsamples = 16\nvalue = [15, 1]"] ;
1094 -> 1095 ;
1096 [label="DebtRatio <= 0.0873\ngini = 0.2778\nsamples = 6\nvalue = [5, 1]"] ;
1095 -> 1096 ;
1097 [label="gini = 0.0\nsamples = 5\nvalue = [5, 0]"] ;
1096 -> 1097 ;
1098 [label="gini = 0.0\nsamples = 1\nvalue = [0, 1]"] ;
1096 -> 1098 ;
1099 [label="gini = 0.0\nsamples = 10\nvalue = [10, 0]"] ;
1095 -> 1099 ;
1100 [label="gini = 0.0\nsamples = 1\nvalue = [0, 1]"] ;
1094 -> 1100 ;
1101 [label="MonthlyIncome <= 28291.5\ngini = 0.0311\nsamples = 570\nvalue = [561, 9]"] ;
1093 -> 1101 ;
1102 [label="NumberRealEstateLoansOrLines <= 1.5\ngini = 0.0282\nsamples = 560\nvalue = [552, 8]"] ;
1101 -> 1102 ;
1103 [label="NumberOfOpenCreditLinesAndLoans <= 6.5\ngini = 0.0416\nsamples = 376\nvalue = [368, 8]"] ;
1102 -> 1103 ;
1104 [label="MonthlyIncome <= 6273.0\ngini = 0.0226\nsamples = 263\nvalue = [260, 3]"] ;
1103 -> 1104 ;
1105 [label="MonthlyIncome <= 6148.0\ngini = 0.1023\nsamples = 37\nvalue = [35, 2]"] ;
1104 -> 1105 ;
1106 [label="gini = 0.0\nsamples = 30\nvalue = [30, 0]"] ;
1105 -> 1106 ;
1107 [label="DebtRatio <= 0.2183\ngini = 0.4082\nsamples = 7\nvalue = [5, 2]"] ;
1105 -> 1107 ;
1108 [label="gini = 0.0\nsamples = 4\nvalue = [4, 0]"] ;
1107 -> 1108 ;
1109 [label="DebtRatio <= 0.3189\ngini = 0.4444\nsamples = 3\nvalue = [1, 2]"] ;
1107 -> 1109 ;
1110 [label="gini = 0.0\nsamples = 2\nvalue = [0, 2]"] ;
1109 -> 1110 ;
1111 [label="gini = 0.0\nsamples = 1\nvalue = [1, 0]"] ;
1109 -> 1111 ;
1112 [label="age <= 59.5\ngini = 0.0088\nsamples = 226\nvalue = [225, 1]"] ;
1104 -> 1112 ;
1113 [label="gini = 0.0\nsamples = 215\nvalue = [215, 0]"] ;
1112 -> 1113 ;
1114 [label="DebtRatio <= 0.0023\ngini = 0.1653\nsamples = 11\nvalue = [10, 1]"] ;
1112 -> 1114 ;
1115 [label="MonthlyIncome <= 9158.0\ngini = 0.4444\nsamples = 3\nvalue = [2, 1]"] ;
1114 -> 1115 ;
1116 [label="gini = 0.0\nsamples = 2\nvalue = [2, 0]"] ;
1115 -> 1116 ;
1117 [label="gini = 0.0\nsamples = 1\nvalue = [0, 1]"] ;
1115 -> 1117 ;
1118 [label="gini = 0.0\nsamples = 8\nvalue = [8, 0]"] ;
1114 -> 1118 ;
1119 [label="DebtRatio <= 0.0001\ngini = 0.0846\nsamples = 113\nvalue = [108, 5]"] ;
1103 -> 1119 ;
1120 [label="MonthlyIncome <= 8500.0\ngini = 0.5\nsamples = 2\nvalue = [1, 1]"] ;
1119 -> 1120 ;
1121 [label="gini = 0.0\nsamples = 1\nvalue = [1, 0]"] ;
1120 -> 1121 ;
1122 [label="gini = 0.0\nsamples = 1\nvalue = [0, 1]"] ;
1120 -> 1122 ;
1123 [label="MonthlyIncome <= 9956.5\ngini = 0.0695\nsamples = 111\nvalue = [107, 4]"] ;
1119 -> 1123 ;
1124 [label="MonthlyIncome <= 9830.0\ngini = 0.1023\nsamples = 74\nvalue = [70, 4]"] ;
1123 -> 1124 ;
1125 [label="MonthlyIncome <= 9041.5\ngini = 0.0788\nsamples = 73\nvalue = [70, 3]"] ;
1124 -> 1125 ;
1126 [label="NumberOfDependents <= 1.5\ngini = 0.0317\nsamples = 62\nvalue = [61, 1]"] ;
1125 -> 1126 ;
1127 [label="gini = 0.0\nsamples = 45\nvalue = [45, 0]"] ;
1126 -> 1127 ;
1128 [label="MonthlyIncome <= 6512.5\ngini = 0.1107\nsamples = 17\nvalue = [16, 1]"] ;
1126 -> 1128 ;
1129 [label="MonthlyIncome <= 6458.0\ngini = 0.2449\nsamples = 7\nvalue = [6, 1]"] ;
1128 -> 1129 ;
1130 [label="gini = 0.0\nsamples = 6\nvalue = [6, 0]"] ;
1129 -> 1130 ;
1131 [label="gini = 0.0\nsamples = 1\nvalue = [0, 1]"] ;
1129 -> 1131 ;
1132 [label="gini = 0.0\nsamples = 10\nvalue = [10, 0]"] ;
1128 -> 1132 ;
1133 [label="NumberRealEstateLoansOrLines <= 0.5\ngini = 0.2975\nsamples = 11\nvalue = [9, 2]"] ;
1125 -> 1133 ;
1134 [label="gini = 0.0\nsamples = 1\nvalue = [0, 1]"] ;
1133 -> 1134 ;
1135 [label="MonthlyIncome <= 9205.5\ngini = 0.18\nsamples = 10\nvalue = [9, 1]"] ;
1133 -> 1135 ;
1136 [label="age <= 54.0\ngini = 0.375\nsamples = 4\nvalue = [3, 1]"] ;
1135 -> 1136 ;
1137 [label="gini = 0.0\nsamples = 3\nvalue = [3, 0]"] ;
1136 -> 1137 ;
1138 [label="gini = 0.0\nsamples = 1\nvalue = [0, 1]"] ;
1136 -> 1138 ;
1139 [label="gini = 0.0\nsamples = 6\nvalue = [6, 0]"] ;
1135 -> 1139 ;
1140 [label="gini = 0.0\nsamples = 1\nvalue = [0, 1]"] ;
1124 -> 1140 ;
1141 [label="gini = 0.0\nsamples = 37\nvalue = [37, 0]"] ;
1123 -> 1141 ;
1142 [label="gini = 0.0\nsamples = 184\nvalue = [184, 0]"] ;
1102 -> 1142 ;
1143 [label="MonthlyIncome <= 32541.5\ngini = 0.18\nsamples = 10\nvalue = [9, 1]"] ;
1101 -> 1143 ;
1144 [label="gini = 0.0\nsamples = 1\nvalue = [0, 1]"] ;
1143 -> 1144 ;
1145 [label="gini = 0.0\nsamples = 9\nvalue = [9, 0]"] ;
1143 -> 1145 ;
1146 [label="gini = 0.0\nsamples = 2\nvalue = [0, 2]"] ;
1092 -> 1146 ;
1147 [label="MonthlyIncome <= 8163.0\ngini = 0.013\nsamples = 8242\nvalue = [8188, 54]"] ;
1057 -> 1147 ;
1148 [label="MonthlyIncome <= 8160.5\ngini = 0.0152\nsamples = 6004\nvalue = [5958, 46]"] ;
1147 -> 1148 ;
